%YAML:1.0
my_nn: !!opencv-ml-ann-mlp
   layer_sizes: !!opencv-matrix
      rows: 1
      cols: 3
      dt: i
      data: [ 183, 183, 183 ]
   activation_function: SIGMOID_SYM
   f_param1: 1.
   f_param2: 1.
   min_val: -9.4999999999999996e-01
   max_val: 9.4999999999999996e-01
   min_val1: -9.7999999999999998e-01
   max_val1: 9.7999999999999998e-01
   training_params:
      train_method: RPROP
      dw0: 1.0000000149011612e-01
      dw_plus: 1.2000000476837158e+00
      dw_minus: 5.0000000000000000e-01
      dw_min: 1.1920928955078125e-07
      dw_max: 50.
      term_criteria: { epsilon:9.9999997473787516e-05, iterations:200 }
   input_scale: [ 4.9885445278172549e+00, 4.2467305796995483e+00,
       4.9480933595784302e+00, 4.2104832882120933e+00,
       4.9981298942462216e+00, 4.2553505954250248e+00,
       5.0537454056567412e+00, 4.3070577871836919e+00,
       5.0020815509820533e+00, 4.2610539024511649e+00,
       4.9736286348164489e+00, 4.2314147258726846e+00,
       4.9488691803337108e+00, 4.2081092242959794e+00,
       4.9937262464906977e+00, 4.2496602218325963e+00,
       5.0086012409572893e+00, 4.2626253621475758e+00,
       4.9830318125100304e+00, 4.2358216115705138e+00,
       5.0212186802738632e+00, 4.2719319511827418e+00,
       5.0143694482537278e+00, 4.2694498125357354e+00,
       5.0150462686672057e+00, 4.2710418928036713e+00,
       4.9929858951910457e+00, 4.2496878333312917e+00,
       4.9927580832490861e+00, 4.2490696900905602e+00,
       5.0375855828556295e+00, 4.2904777251163999e+00,
       5.0642081466521640e+00, 4.3132748148489872e+00,
       4.9779402927231082e+00, 4.2309594398217705e+00,
       5.0040988819446230e+00, 4.2540150027459527e+00,
       4.9776518102906717e+00, 4.2306542803351572e+00,
       4.9642671097556130e+00, 4.2175837512893244e+00,
       4.9404810079404209e+00, 4.1926980013318405e+00,
       4.9131751505009209e+00, 4.1656257116641413e+00,
       4.9362980141147776e+00, 4.1835557657925300e+00,
       4.8679895859276376e+00, 4.1178256615486166e+00,
       4.7814051852564523e+00, 4.0374321707065919e+00,
       4.7978249426810429e+00, 4.0524615344744603e+00,
       5.0587977642714863e+00, 4.2939524295302629e+00,
       5.1165404089747106e+00, 4.3352731212776288e+00,
       4.5256563578170343e+00, 3.7666261132749721e+00,
       4.1300601928139784e+00, 3.3853793842894429e+00,
       4.5755882294860086e+00, 3.8124360716412689e+00,
       5.1321304468663955e+00, 4.3506713310294645e+00,
       5.0209084939649529e+00, 4.2587108592955074e+00,
       4.7598311685109156e+00, 4.0183739918515879e+00,
       4.7525384699708084e+00, 4.0068514363099661e+00,
       4.8288991383577393e+00, 4.0783079775360314e+00,
       4.8673044243114507e+00, 4.1178637257641846e+00,
       4.9612304841026384e+00, 4.2080516108248860e+00,
       4.9239888328912320e+00, 4.1755905368828339e+00,
       4.9563637579504389e+00, 4.2082562563934021e+00,
       4.9601458411692327e+00, 4.2114308266547802e+00,
       4.9704598199100101e+00, 4.2222086857544490e+00,
       4.9559136300790048e+00, 4.2101308940353022e+00,
       4.9699544785357288e+00, 4.2242549872498749e+00,
       4.9887412506768491e+00, 4.2411388847657392e+00,
       5.0135420971386786e+00, 4.2641067586865740e+00,
       5.0284591027116265e+00, 4.2789497169003825e+00,
       4.9812259660115989e+00, 4.2341873380843902e+00,
       4.9628935540241024e+00, 4.2193320776358405e+00,
       4.9782835183116925e+00, 4.2314206876000791e+00,
       4.9536060588956756e+00, 4.2080472425096147e+00,
       4.9733953806058544e+00, 4.2281102898465939e+00,
       5.0003920081569326e+00, 4.2531191585768573e+00,
       4.9663400881090132e+00, 4.2231445297576169e+00,
       4.9671864723683203e+00, 4.2245839329338430e+00,
       5.0374771452465774e+00, 4.2892048063547792e+00,
       4.9909423928829559e+00, 4.2474306559446315e+00,
       5.0076743972198088e+00, 4.2648947838429612e+00,
       5.0110402207613403e+00, 4.2684712935859528e+00,
       4.9682019989252781e+00, 4.2267404478237465e+00,
       4.7069855123865496e+00, 3.9698015083866616e+00,
       4.6540784809105862e+00, 3.9257217496990884e+00,
       4.6561005274431784e+00, 3.9251096084642234e+00,
       4.6725988382848653e+00, 3.9373905529046604e+00,
       4.6689785851755481e+00, 3.9357416173421624e+00,
       4.6906333526584110e+00, 3.9569076949242254e+00,
       4.6147196008755822e+00, 3.8838127621144030e+00,
       4.6223108631480825e+00, 3.8933601502775450e+00,
       4.6625106642327756e+00, 3.9273012201885535e+00,
       4.6461918388984653e+00, 3.9092046593235050e+00,
       4.6879572339104580e+00, 3.9503738035250904e+00,
       4.6842163740501270e+00, 3.9490152736183557e+00,
       4.6545863113184138e+00, 3.9213374423778165e+00,
       4.6271209723855575e+00, 3.8969954755760789e+00,
       4.6746608112483452e+00, 3.9399638157672316e+00,
       4.7125516893253643e+00, 3.9765617022551307e+00,
       4.6932174165515539e+00, 3.9601180788766097e+00,
       4.6652026185660542e+00, 3.9293663652664117e+00,
       4.6092738252765502e+00, 3.8752307407005224e+00,
       4.6073486251342679e+00, 3.8735285077166668e+00,
       4.5773979095454242e+00, 3.8468246389263867e+00,
       4.6460583360525805e+00, 3.9098498136047586e+00,
       4.6243217414323512e+00, 3.8893967819714295e+00,
       4.4991104605348760e+00, 3.7684560984605606e+00,
       4.5648373713771333e+00, 3.8205012255920558e+00,
       4.3511491896129320e+00, 3.6082317999655786e+00,
       4.1337870447896368e+00, 3.4136158435930390e+00,
       5.0415431120044412e+00, 4.3011585011742213e+00,
       5.9966471308275482e+00, 5.2053365744228488e+00,
       4.7899064253515640e+00, 3.9768925714625416e+00,
       2.9440461644675135e+00, 2.1531808808978465e+00,
       4.7673985931835281e+00, 3.9590137624068205e+00,
       5.9987325543805738e+00, 5.2075698123068781e+00,
       5.0275185605386650e+00, 4.2859560436087385e+00,
       4.1082206778748311e+00, 3.3866826120375504e+00,
       4.3436769041753811e+00, 3.5982292982648518e+00,
       4.5212318600212473e+00, 3.7809245509984541e+00,
       4.5083080473497805e+00, 3.7762215531687486e+00,
       4.6576375047298884e+00, 3.9177956181408522e+00,
       4.6322433060143755e+00, 3.8947959777096517e+00,
       4.6133992025215997e+00, 3.8759217176490566e+00,
       4.6041450933566592e+00, 3.8682948400184052e+00,
       4.5749403246307550e+00, 3.8409769565665481e+00,
       4.5934719467023957e+00, 3.8613270573928848e+00,
       4.6741440128083438e+00, 3.9384223153533702e+00,
       4.7253468732719712e+00, 3.9842488642770908e+00,
       4.6467729184781215e+00, 3.9137286116774477e+00,
       4.6264914642068256e+00, 3.8947077650210717e+00,
       4.6134952968935732e+00, 3.8807941178801113e+00,
       4.6332273504550754e+00, 3.8987803674857946e+00,
       4.6606146191985305e+00, 3.9256787003715514e+00,
       4.6069921422682896e+00, 3.8741856370251515e+00,
       4.6364809140123402e+00, 3.9014645628727203e+00,
       4.6279873824488149e+00, 3.8951917209688256e+00,
       4.6189767751186430e+00, 3.8857352062012676e+00,
       4.6403765350918125e+00, 3.9086014150556272e+00,
       4.6834557286880516e+00, 3.9468799589472474e+00,
       4.6705485901405819e+00, 3.9331406599934540e+00,
       4.6955126179697766e+00, 3.9598448664317574e+00,
       4.6638965893489006e+00, 3.9350371673243760e+00,
       4.6854170696459567e+00, 3.9527835688837714e+00,
       5.0562310001175801e+00, 4.3095854711189236e+00,
       5.0481824649353477e+00, 4.3023086585725929e+00,
       5.0214447104759508e+00, 4.2743778475994008e+00,
       5.0189860329500453e+00, 4.2722196592158186e+00,
       5.0000915586541899e+00, 4.2571893963871776e+00,
       5.0189378232422523e+00, 4.2754251142605701e+00,
       5.0551774208872500e+00, 4.3061369730406343e+00,
       5.0100061112234364e+00, 4.2638531823529684e+00,
       5.0078933344805616e+00, 4.2608050180991572e+00,
       5.0106983447973228e+00, 4.2636921924327629e+00,
       5.0405881017745333e+00, 4.2908318685540383e+00,
       4.9991184440332681e+00, 4.2537414865409300e+00,
       5.0355892322173421e+00, 4.2867035402291247e+00,
       5.0682232303792079e+00, 4.3168508387929307e+00,
       5.0389958580831200e+00, 4.2919386654228706e+00,
       5.0571747810709056e+00, 4.3069513216616029e+00,
       5.0535111100524448e+00, 4.3032856644627424e+00,
       5.0378201463285786e+00, 4.2860593156253151e+00,
       5.0234604443768571e+00, 4.2726199526237796e+00,
       4.9761936355490661e+00, 4.2284781367354265e+00,
       4.9861696903291444e+00, 4.2379803789675279e+00,
       5.0051119517165876e+00, 4.2520921047296198e+00,
       4.9456851571455251e+00, 4.1933568772094514e+00,
       4.8572593417389776e+00, 4.1082043754481301e+00,
       4.8885702757459519e+00, 4.1369246762709810e+00,
       4.8352903345909617e+00, 4.0873817806695110e+00,
       4.8173761413813505e+00, 4.0724280845950780e+00,
       5.0337021985797499e+00, 4.2684272109998256e+00,
       5.1070290614709704e+00, 4.3244914247242265e+00,
       4.6417676156531140e+00, 3.8743498046053131e+00,
       4.1733450943631318e+00, 3.4238642268338553e+00,
       4.5456606080453188e+00, 3.7831190532329870e+00,
       5.1437006328625587e+00, 4.3609457371969160e+00,
       5.0794170479360909e+00, 4.3144265690539934e+00,
       4.8365581638454529e+00, 4.0872532170107299e+00,
       4.7498827107029067e+00, 4.0046360252208038e+00,
       4.8935017863552686e+00, 4.1399857027118570e+00,
       4.9277570305733684e+00, 4.1732135986440948e+00,
       5.0018036085491833e+00, 4.2434550353790357e+00,
       4.9906627179900473e+00, 4.2383906438377563e+00,
       4.9763357021876393e+00, 4.2268107372815660e+00,
       4.9999658478695261e+00, 4.2446635058250921e+00,
       4.9626132310738482e+00, 4.2108856660059617e+00,
       5.0224073483749585e+00, 4.2700825466351882e+00,
       5.0159323561009312e+00, 4.2667093452627789e+00,
       5.0372557307025252e+00, 4.2870387829603906e+00,
       5.0506805344634644e+00, 4.2982678517689807e+00,
       5.0137780661669957e+00, 4.2648897243319857e+00,
       4.9739762916885049e+00, 4.2301405472663145e+00,
       5.0162166319725321e+00, 4.2674499148346348e+00,
       5.0309132448942133e+00, 4.2790194148537211e+00,
       4.9887299906465641e+00, 4.2394954023383491e+00,
       5.0161571648691421e+00, 4.2662793533093311e+00,
       5.0232421047700617e+00, 4.2741375555791210e+00,
       5.0108259919598668e+00, 4.2617765409493416e+00,
       4.9675534431129229e+00, 4.2235483414990789e+00,
       4.9998496992201886e+00, 4.2534786774882480e+00,
       5.0434165056761060e+00, 4.2948403485190729e+00,
       5.0534352498465278e+00, 4.3050368893068276e+00,
       5.0349953341543188e+00, 4.2903444808683577e+00,
       5.0386079292499657e+00, 4.2929120970286458e+00 ]
   output_scale: [ 1.0526315162056370e+00, -5.9604644798763520e-08,
       1.0526315162056370e+00, -5.9604644798763520e-08,
       1.0526315162056370e+00, -5.9604644798763520e-08,
       1.0526315162056370e+00, -5.9604644798763520e-08,
       1.0526315162056370e+00, -5.9604644798763520e-08,
       1.0526315162056370e+00, -5.9604644798763520e-08,
       1.0526315162056370e+00, -5.9604644798763520e-08,
       1.0526315162056370e+00, -5.9604644798763520e-08,
       1.0526315162056370e+00, -5.9604644798763520e-08,
       1.0526315162056370e+00, -5.9604644798763520e-08,
       1.0526315162056370e+00, -5.9604644798763520e-08,
       1.0526315162056370e+00, -5.9604644798763520e-08,
       1.0526315162056370e+00, -5.9604644798763520e-08,
       1.0526315162056370e+00, -5.9604644798763520e-08,
       1.0526315162056370e+00, -5.9604644798763520e-08,
       1.0526315162056370e+00, -5.9604644798763520e-08,
       1.0526315162056370e+00, -5.9604644798763520e-08,
       1.0526315162056370e+00, -5.9604644798763520e-08,
       1.0526315162056370e+00, -5.9604644798763520e-08,
       1.0526315162056370e+00, -5.9604644798763520e-08,
       1.0526315162056370e+00, -5.9604644798763520e-08,
       1.0526315162056370e+00, -5.9604644798763520e-08,
       1.0526315162056370e+00, -5.9604644798763520e-08,
       1.0526315162056370e+00, -5.9604644798763520e-08,
       1.0526315162056370e+00, -5.9604644798763520e-08,
       1.0526315162056370e+00, -5.9604644798763520e-08,
       1.0526315162056370e+00, -5.9604644798763520e-08,
       1.0526315162056370e+00, -5.9604644798763520e-08,
       1.0526315162056370e+00, -5.9604644798763520e-08,
       1.0526315162056370e+00, -5.9604644798763520e-08,
       1.0526315162056370e+00, -5.9604644798763520e-08,
       1.0526315162056370e+00, -5.9604644798763520e-08,
       1.0526315162056370e+00, -5.9604644798763520e-08,
       1.0526315162056370e+00, -5.9604644798763520e-08,
       1.0526315162056370e+00, -5.9604644798763520e-08,
       1.0526315162056370e+00, -5.9604644798763520e-08,
       1.0526315162056370e+00, -5.9604644798763520e-08,
       1.0526315162056370e+00, -5.9604644798763520e-08,
       1.0526315162056370e+00, -5.9604644798763520e-08,
       1.0526315162056370e+00, -5.9604644798763520e-08,
       1.0526315162056370e+00, -5.9604644798763520e-08,
       1.0526315162056370e+00, -5.9604644798763520e-08,
       1.0526315162056370e+00, -5.9604644798763520e-08,
       1.0526315162056370e+00, -5.9604644798763520e-08,
       1.0526315162056370e+00, -5.9604644798763520e-08,
       1.0526315162056370e+00, -5.9604644798763520e-08,
       1.0526315162056370e+00, -5.9604644798763520e-08,
       1.0526315162056370e+00, -5.9604644798763520e-08,
       1.0526315162056370e+00, -5.9604644798763520e-08,
       1.0526315162056370e+00, -5.9604644798763520e-08,
       1.0526315162056370e+00, -5.9604644798763520e-08,
       1.0526315162056370e+00, -5.9604644798763520e-08,
       1.0526315162056370e+00, -5.9604644798763520e-08,
       1.0526315162056370e+00, -5.9604644798763520e-08,
       1.0526315162056370e+00, -5.9604644798763520e-08,
       1.0526315162056370e+00, -5.9604644798763520e-08,
       1.0526315162056370e+00, -5.9604644798763520e-08,
       1.0526315162056370e+00, -5.9604644798763520e-08,
       1.0526315162056370e+00, -5.9604644798763520e-08,
       1.0526315162056370e+00, -5.9604644798763520e-08,
       1.0526315162056370e+00, -5.9604644798763520e-08,
       1.0526315162056370e+00, -5.9604644798763520e-08,
       1.0526315162056370e+00, -5.9604644798763520e-08,
       1.0526315162056370e+00, -5.9604644798763520e-08,
       1.0526315162056370e+00, -5.9604644798763520e-08,
       1.0526315162056370e+00, -5.9604644798763520e-08,
       1.0526315162056370e+00, -5.9604644798763520e-08,
       1.0526315162056370e+00, -5.9604644798763520e-08,
       1.0526315162056370e+00, -5.9604644798763520e-08,
       1.0526315162056370e+00, -5.9604644798763520e-08,
       1.0526315162056370e+00, -5.9604644798763520e-08,
       1.0526315162056370e+00, -5.9604644798763520e-08,
       1.0526315162056370e+00, -5.9604644798763520e-08,
       1.0526315162056370e+00, -5.9604644798763520e-08,
       1.0526315162056370e+00, -5.9604644798763520e-08,
       1.0526315162056370e+00, -5.9604644798763520e-08,
       1.0526315162056370e+00, -5.9604644798763520e-08,
       1.0526315162056370e+00, -5.9604644798763520e-08,
       1.0526315162056370e+00, -5.9604644798763520e-08,
       1.0526315162056370e+00, -5.9604644798763520e-08,
       1.0526315162056370e+00, -5.9604644798763520e-08,
       1.0526315162056370e+00, -5.9604644798763520e-08,
       1.0526315162056370e+00, -5.9604644798763520e-08,
       1.0526315162056370e+00, -5.9604644798763520e-08,
       1.0526315162056370e+00, -5.9604644798763520e-08,
       1.0526315162056370e+00, -5.9604644798763520e-08,
       1.0526315162056370e+00, -5.9604644798763520e-08,
       1.0526315162056370e+00, -5.9604644798763520e-08,
       1.0526315162056370e+00, -5.9604644798763520e-08,
       1.0526315162056370e+00, -5.9604644798763520e-08,
       1.0526315162056370e+00, -5.9604644798763520e-08,
       1.0526315162056370e+00, -5.9604644798763520e-08,
       1.0526315162056370e+00, -5.9604644798763520e-08,
       1.0526315162056370e+00, -5.9604644798763520e-08,
       1.0526315162056370e+00, -5.9604644798763520e-08,
       1.0526315162056370e+00, -5.9604644798763520e-08,
       1.0526315162056370e+00, -5.9604644798763520e-08,
       1.0526315162056370e+00, -5.9604644798763520e-08,
       1.0526315162056370e+00, -5.9604644798763520e-08,
       1.0526315162056370e+00, -5.9604644798763520e-08,
       1.0526315162056370e+00, -5.9604644798763520e-08,
       1.0526315162056370e+00, -5.9604644798763520e-08,
       1.0526315162056370e+00, -5.9604644798763520e-08,
       1.0526315162056370e+00, -5.9604644798763520e-08,
       1.0526315162056370e+00, -5.9604644798763520e-08,
       1.0526315162056370e+00, -5.9604644798763520e-08,
       1.0526315162056370e+00, -5.9604644798763520e-08,
       1.0526315162056370e+00, -5.9604644798763520e-08,
       1.0526315162056370e+00, -5.9604644798763520e-08,
       1.0526315162056370e+00, -5.9604644798763520e-08,
       1.0526315162056370e+00, -5.9604644798763520e-08,
       1.0526315162056370e+00, -5.9604644798763520e-08,
       1.0526315162056370e+00, -5.9604644798763520e-08,
       1.0526315162056370e+00, -5.9604644798763520e-08,
       1.0526315162056370e+00, -5.9604644798763520e-08,
       1.0526315162056370e+00, -5.9604644798763520e-08,
       1.0526315162056370e+00, -5.9604644798763520e-08,
       1.0526315162056370e+00, -5.9604644798763520e-08,
       1.0526315162056370e+00, -5.9604644798763520e-08,
       1.0526315162056370e+00, -5.9604644798763520e-08,
       1.0526315162056370e+00, -5.9604644798763520e-08,
       1.0526315162056370e+00, -5.9604644798763520e-08,
       1.0526315162056370e+00, -5.9604644798763520e-08,
       1.0526315162056370e+00, -5.9604644798763520e-08,
       1.0526315162056370e+00, -5.9604644798763520e-08,
       1.0526315162056370e+00, -5.9604644798763520e-08,
       1.0526315162056370e+00, -5.9604644798763520e-08,
       1.0526315162056370e+00, -5.9604644798763520e-08,
       1.0526315162056370e+00, -5.9604644798763520e-08,
       1.0526315162056370e+00, -5.9604644798763520e-08,
       1.0526315162056370e+00, -5.9604644798763520e-08,
       1.0526315162056370e+00, -5.9604644798763520e-08,
       1.0526315162056370e+00, -5.9604644798763520e-08,
       1.0526315162056370e+00, -5.9604644798763520e-08,
       1.0526315162056370e+00, -5.9604644798763520e-08,
       1.0526315162056370e+00, -5.9604644798763520e-08,
       1.0526315162056370e+00, -5.9604644798763520e-08,
       1.0526315162056370e+00, -5.9604644798763520e-08,
       1.0526315162056370e+00, -5.9604644798763520e-08,
       1.0526315162056370e+00, -5.9604644798763520e-08,
       1.0526315162056370e+00, -5.9604644798763520e-08,
       1.0526315162056370e+00, -5.9604644798763520e-08,
       1.0526315162056370e+00, -5.9604644798763520e-08,
       1.0526315162056370e+00, -5.9604644798763520e-08,
       1.0526315162056370e+00, -5.9604644798763520e-08,
       1.0526315162056370e+00, -5.9604644798763520e-08,
       1.0526315162056370e+00, -5.9604644798763520e-08,
       1.0526315162056370e+00, -5.9604644798763520e-08,
       1.0526315162056370e+00, -5.9604644798763520e-08,
       1.0526315162056370e+00, -5.9604644798763520e-08,
       1.0526315162056370e+00, -5.9604644798763520e-08,
       1.0526315162056370e+00, -5.9604644798763520e-08,
       1.0526315162056370e+00, -5.9604644798763520e-08,
       1.0526315162056370e+00, -5.9604644798763520e-08,
       1.0526315162056370e+00, -5.9604644798763520e-08,
       1.0526315162056370e+00, -5.9604644798763520e-08,
       1.0526315162056370e+00, -5.9604644798763520e-08,
       1.0526315162056370e+00, -5.9604644798763520e-08,
       1.0526315162056370e+00, -5.9604644798763520e-08,
       1.0526315162056370e+00, -5.9604644798763520e-08,
       1.0526315162056370e+00, -5.9604644798763520e-08,
       1.0526315162056370e+00, -5.9604644798763520e-08,
       1.0526315162056370e+00, -5.9604644798763520e-08,
       1.0526315162056370e+00, -5.9604644798763520e-08,
       1.0526315162056370e+00, -5.9604644798763520e-08,
       1.0526315162056370e+00, -5.9604644798763520e-08,
       1.0526315162056370e+00, -5.9604644798763520e-08,
       1.0526315162056370e+00, -5.9604644798763520e-08,
       1.0526315162056370e+00, -5.9604644798763520e-08,
       1.0526315162056370e+00, -5.9604644798763520e-08,
       1.0526315162056370e+00, -5.9604644798763520e-08,
       1.0526315162056370e+00, -5.9604644798763520e-08,
       1.0526315162056370e+00, -5.9604644798763520e-08,
       1.0526315162056370e+00, -5.9604644798763520e-08,
       1.0526315162056370e+00, -5.9604644798763520e-08,
       1.0526315162056370e+00, -5.9604644798763520e-08,
       1.0526315162056370e+00, -5.9604644798763520e-08,
       1.0526315162056370e+00, -5.9604644798763520e-08,
       1.0526315162056370e+00, -5.9604644798763520e-08,
       1.0526315162056370e+00, -5.9604644798763520e-08,
       1.0526315162056370e+00, -5.9604644798763520e-08,
       1.0526315162056370e+00, -5.9604644798763520e-08,
       1.0526315162056370e+00, -5.9604644798763520e-08 ]
   inv_output_scale: [ 9.5000005662441589e-01, 5.6624415933903549e-08,
       9.5000005662441589e-01, 5.6624415933903549e-08,
       9.5000005662441589e-01, 5.6624415933903549e-08,
       9.5000005662441589e-01, 5.6624415933903549e-08,
       9.5000005662441589e-01, 5.6624415933903549e-08,
       9.5000005662441589e-01, 5.6624415933903549e-08,
       9.5000005662441589e-01, 5.6624415933903549e-08,
       9.5000005662441589e-01, 5.6624415933903549e-08,
       9.5000005662441589e-01, 5.6624415933903549e-08,
       9.5000005662441589e-01, 5.6624415933903549e-08,
       9.5000005662441589e-01, 5.6624415933903549e-08,
       9.5000005662441589e-01, 5.6624415933903549e-08,
       9.5000005662441589e-01, 5.6624415933903549e-08,
       9.5000005662441589e-01, 5.6624415933903549e-08,
       9.5000005662441589e-01, 5.6624415933903549e-08,
       9.5000005662441589e-01, 5.6624415933903549e-08,
       9.5000005662441589e-01, 5.6624415933903549e-08,
       9.5000005662441589e-01, 5.6624415933903549e-08,
       9.5000005662441589e-01, 5.6624415933903549e-08,
       9.5000005662441589e-01, 5.6624415933903549e-08,
       9.5000005662441589e-01, 5.6624415933903549e-08,
       9.5000005662441589e-01, 5.6624415933903549e-08,
       9.5000005662441589e-01, 5.6624415933903549e-08,
       9.5000005662441589e-01, 5.6624415933903549e-08,
       9.5000005662441589e-01, 5.6624415933903549e-08,
       9.5000005662441589e-01, 5.6624415933903549e-08,
       9.5000005662441589e-01, 5.6624415933903549e-08,
       9.5000005662441589e-01, 5.6624415933903549e-08,
       9.5000005662441589e-01, 5.6624415933903549e-08,
       9.5000005662441589e-01, 5.6624415933903549e-08,
       9.5000005662441589e-01, 5.6624415933903549e-08,
       9.5000005662441589e-01, 5.6624415933903549e-08,
       9.5000005662441589e-01, 5.6624415933903549e-08,
       9.5000005662441589e-01, 5.6624415933903549e-08,
       9.5000005662441589e-01, 5.6624415933903549e-08,
       9.5000005662441589e-01, 5.6624415933903549e-08,
       9.5000005662441589e-01, 5.6624415933903549e-08,
       9.5000005662441589e-01, 5.6624415933903549e-08,
       9.5000005662441589e-01, 5.6624415933903549e-08,
       9.5000005662441589e-01, 5.6624415933903549e-08,
       9.5000005662441589e-01, 5.6624415933903549e-08,
       9.5000005662441589e-01, 5.6624415933903549e-08,
       9.5000005662441589e-01, 5.6624415933903549e-08,
       9.5000005662441589e-01, 5.6624415933903549e-08,
       9.5000005662441589e-01, 5.6624415933903549e-08,
       9.5000005662441589e-01, 5.6624415933903549e-08,
       9.5000005662441589e-01, 5.6624415933903549e-08,
       9.5000005662441589e-01, 5.6624415933903549e-08,
       9.5000005662441589e-01, 5.6624415933903549e-08,
       9.5000005662441589e-01, 5.6624415933903549e-08,
       9.5000005662441589e-01, 5.6624415933903549e-08,
       9.5000005662441589e-01, 5.6624415933903549e-08,
       9.5000005662441589e-01, 5.6624415933903549e-08,
       9.5000005662441589e-01, 5.6624415933903549e-08,
       9.5000005662441589e-01, 5.6624415933903549e-08,
       9.5000005662441589e-01, 5.6624415933903549e-08,
       9.5000005662441589e-01, 5.6624415933903549e-08,
       9.5000005662441589e-01, 5.6624415933903549e-08,
       9.5000005662441589e-01, 5.6624415933903549e-08,
       9.5000005662441589e-01, 5.6624415933903549e-08,
       9.5000005662441589e-01, 5.6624415933903549e-08,
       9.5000005662441589e-01, 5.6624415933903549e-08,
       9.5000005662441589e-01, 5.6624415933903549e-08,
       9.5000005662441589e-01, 5.6624415933903549e-08,
       9.5000005662441589e-01, 5.6624415933903549e-08,
       9.5000005662441589e-01, 5.6624415933903549e-08,
       9.5000005662441589e-01, 5.6624415933903549e-08,
       9.5000005662441589e-01, 5.6624415933903549e-08,
       9.5000005662441589e-01, 5.6624415933903549e-08,
       9.5000005662441589e-01, 5.6624415933903549e-08,
       9.5000005662441589e-01, 5.6624415933903549e-08,
       9.5000005662441589e-01, 5.6624415933903549e-08,
       9.5000005662441589e-01, 5.6624415933903549e-08,
       9.5000005662441589e-01, 5.6624415933903549e-08,
       9.5000005662441589e-01, 5.6624415933903549e-08,
       9.5000005662441589e-01, 5.6624415933903549e-08,
       9.5000005662441589e-01, 5.6624415933903549e-08,
       9.5000005662441589e-01, 5.6624415933903549e-08,
       9.5000005662441589e-01, 5.6624415933903549e-08,
       9.5000005662441589e-01, 5.6624415933903549e-08,
       9.5000005662441589e-01, 5.6624415933903549e-08,
       9.5000005662441589e-01, 5.6624415933903549e-08,
       9.5000005662441589e-01, 5.6624415933903549e-08,
       9.5000005662441589e-01, 5.6624415933903549e-08,
       9.5000005662441589e-01, 5.6624415933903549e-08,
       9.5000005662441589e-01, 5.6624415933903549e-08,
       9.5000005662441589e-01, 5.6624415933903549e-08,
       9.5000005662441589e-01, 5.6624415933903549e-08,
       9.5000005662441589e-01, 5.6624415933903549e-08,
       9.5000005662441589e-01, 5.6624415933903549e-08,
       9.5000005662441589e-01, 5.6624415933903549e-08,
       9.5000005662441589e-01, 5.6624415933903549e-08,
       9.5000005662441589e-01, 5.6624415933903549e-08,
       9.5000005662441589e-01, 5.6624415933903549e-08,
       9.5000005662441589e-01, 5.6624415933903549e-08,
       9.5000005662441589e-01, 5.6624415933903549e-08,
       9.5000005662441589e-01, 5.6624415933903549e-08,
       9.5000005662441589e-01, 5.6624415933903549e-08,
       9.5000005662441589e-01, 5.6624415933903549e-08,
       9.5000005662441589e-01, 5.6624415933903549e-08,
       9.5000005662441589e-01, 5.6624415933903549e-08,
       9.5000005662441589e-01, 5.6624415933903549e-08,
       9.5000005662441589e-01, 5.6624415933903549e-08,
       9.5000005662441589e-01, 5.6624415933903549e-08,
       9.5000005662441589e-01, 5.6624415933903549e-08,
       9.5000005662441589e-01, 5.6624415933903549e-08,
       9.5000005662441589e-01, 5.6624415933903549e-08,
       9.5000005662441589e-01, 5.6624415933903549e-08,
       9.5000005662441589e-01, 5.6624415933903549e-08,
       9.5000005662441589e-01, 5.6624415933903549e-08,
       9.5000005662441589e-01, 5.6624415933903549e-08,
       9.5000005662441589e-01, 5.6624415933903549e-08,
       9.5000005662441589e-01, 5.6624415933903549e-08,
       9.5000005662441589e-01, 5.6624415933903549e-08,
       9.5000005662441589e-01, 5.6624415933903549e-08,
       9.5000005662441589e-01, 5.6624415933903549e-08,
       9.5000005662441589e-01, 5.6624415933903549e-08,
       9.5000005662441589e-01, 5.6624415933903549e-08,
       9.5000005662441589e-01, 5.6624415933903549e-08,
       9.5000005662441589e-01, 5.6624415933903549e-08,
       9.5000005662441589e-01, 5.6624415933903549e-08,
       9.5000005662441589e-01, 5.6624415933903549e-08,
       9.5000005662441589e-01, 5.6624415933903549e-08,
       9.5000005662441589e-01, 5.6624415933903549e-08,
       9.5000005662441589e-01, 5.6624415933903549e-08,
       9.5000005662441589e-01, 5.6624415933903549e-08,
       9.5000005662441589e-01, 5.6624415933903549e-08,
       9.5000005662441589e-01, 5.6624415933903549e-08,
       9.5000005662441589e-01, 5.6624415933903549e-08,
       9.5000005662441589e-01, 5.6624415933903549e-08,
       9.5000005662441589e-01, 5.6624415933903549e-08,
       9.5000005662441589e-01, 5.6624415933903549e-08,
       9.5000005662441589e-01, 5.6624415933903549e-08,
       9.5000005662441589e-01, 5.6624415933903549e-08,
       9.5000005662441589e-01, 5.6624415933903549e-08,
       9.5000005662441589e-01, 5.6624415933903549e-08,
       9.5000005662441589e-01, 5.6624415933903549e-08,
       9.5000005662441589e-01, 5.6624415933903549e-08,
       9.5000005662441589e-01, 5.6624415933903549e-08,
       9.5000005662441589e-01, 5.6624415933903549e-08,
       9.5000005662441589e-01, 5.6624415933903549e-08,
       9.5000005662441589e-01, 5.6624415933903549e-08,
       9.5000005662441589e-01, 5.6624415933903549e-08,
       9.5000005662441589e-01, 5.6624415933903549e-08,
       9.5000005662441589e-01, 5.6624415933903549e-08,
       9.5000005662441589e-01, 5.6624415933903549e-08,
       9.5000005662441589e-01, 5.6624415933903549e-08,
       9.5000005662441589e-01, 5.6624415933903549e-08,
       9.5000005662441589e-01, 5.6624415933903549e-08,
       9.5000005662441589e-01, 5.6624415933903549e-08,
       9.5000005662441589e-01, 5.6624415933903549e-08,
       9.5000005662441589e-01, 5.6624415933903549e-08,
       9.5000005662441589e-01, 5.6624415933903549e-08,
       9.5000005662441589e-01, 5.6624415933903549e-08,
       9.5000005662441589e-01, 5.6624415933903549e-08,
       9.5000005662441589e-01, 5.6624415933903549e-08,
       9.5000005662441589e-01, 5.6624415933903549e-08,
       9.5000005662441589e-01, 5.6624415933903549e-08,
       9.5000005662441589e-01, 5.6624415933903549e-08,
       9.5000005662441589e-01, 5.6624415933903549e-08,
       9.5000005662441589e-01, 5.6624415933903549e-08,
       9.5000005662441589e-01, 5.6624415933903549e-08,
       9.5000005662441589e-01, 5.6624415933903549e-08,
       9.5000005662441589e-01, 5.6624415933903549e-08,
       9.5000005662441589e-01, 5.6624415933903549e-08,
       9.5000005662441589e-01, 5.6624415933903549e-08,
       9.5000005662441589e-01, 5.6624415933903549e-08,
       9.5000005662441589e-01, 5.6624415933903549e-08,
       9.5000005662441589e-01, 5.6624415933903549e-08,
       9.5000005662441589e-01, 5.6624415933903549e-08,
       9.5000005662441589e-01, 5.6624415933903549e-08,
       9.5000005662441589e-01, 5.6624415933903549e-08,
       9.5000005662441589e-01, 5.6624415933903549e-08,
       9.5000005662441589e-01, 5.6624415933903549e-08,
       9.5000005662441589e-01, 5.6624415933903549e-08,
       9.5000005662441589e-01, 5.6624415933903549e-08,
       9.5000005662441589e-01, 5.6624415933903549e-08,
       9.5000005662441589e-01, 5.6624415933903549e-08,
       9.5000005662441589e-01, 5.6624415933903549e-08,
       9.5000005662441589e-01, 5.6624415933903549e-08,
       9.5000005662441589e-01, 5.6624415933903549e-08,
       9.5000005662441589e-01, 5.6624415933903549e-08,
       9.5000005662441589e-01, 5.6624415933903549e-08 ]
   weights:
      - [ -1.7508803628970426e-01, -2.6605470335980107e-02,
          1.7566826217775927e-01, -2.0068323051268219e-01,
          2.7870072755310969e-02, -2.6934323128794252e-01,
          -2.1031524632417756e-01, -3.0140640366927571e-02,
          -9.2567622887849324e-02, -1.8571833803283375e-01,
          -1.4085316532833941e-01, -7.0513842314489969e-02,
          -5.5590398347001871e-02, -3.9301599755238725e-02,
          6.6955918154238819e-02, 7.1755098925139801e-02,
          -6.6922854164738685e-02, -1.1464566485574418e-01,
          -3.6295443168307329e-01, 1.0572488767644152e-01,
          -3.4963771460880373e-02, -2.8609102225569655e-01,
          6.4291379978180310e-02, -1.0479701024895492e-01,
          -4.7455553088201610e-02, 4.5914864552393311e-02,
          -8.3718688633295069e-02, 9.6763435326211744e-01,
          3.8854360112927214e-02, -1.2595491495687450e-01,
          -1.0178561520620671e-01, 1.8329323208552181e-01,
          6.0973360233387043e-02, 1.3681104057931720e-01,
          2.0031637326237617e-01, -3.0004614982753974e-02,
          -2.6422869578049908e-02, -9.3959368644925989e-02,
          -8.8650990010320299e-02, -4.9702784319172749e-01,
          -1.2148729281345833e-01, -1.0714363283098366e-01,
          -1.0336838109572856e-01, -6.4966133351868238e-02,
          -1.8976082689330193e-01, 1.2179667848093222e-01,
          1.0625311656122922e-01, 1.5863812205759684e-01,
          -1.7451032434718957e-02, -6.2799024496065420e-02,
          -4.8556151882361182e-01, 1.1131414400391097e-01,
          -2.4925829457131685e-01, 1.2179171385372113e-01,
          3.8863919601949765e-02, -1.7459407785189892e-02,
          1.8087549001269584e-01, 1.5807041815809819e-01,
          8.1700582428325286e-02, -2.0739160832296724e-01,
          5.5284967537066507e-02, -1.8971916084579385e-01,
          -1.9667935478759091e-01, -6.0329612276679885e-02,
          1.1525597047784220e-01, 1.4198083823426559e-03,
          2.9272751539075115e-01, 1.6213447256347563e-01,
          9.8481601029719465e-02, 1.6051306707786015e-02,
          -4.8552759744915429e-02, 1.1554149951819645e-01,
          -5.5224704352585696e-01, -1.6458557579492208e-01,
          1.1388874172617472e-01, -8.8348416449224684e-02,
          -1.4786420324398239e-01, 7.6243985463120972e-02,
          -7.6187408306462956e-01, -5.6787678015868037e-02,
          -1.9236542209889504e-02, 7.2423012059523881e-02,
          1.8692167956219785e-01, 2.4847852356641970e-01,
          1.0227742247038997e-02, 1.7025425520564003e-01,
          5.4037506626521049e-02, -1.2510576897663117e-01,
          3.3851878154010945e-01, -1.0926237562104759e-02,
          4.5456416721907700e-02, 3.6830842662398450e-01,
          6.2917801624427699e-02, 7.7643688988514578e-02,
          -3.1307271785640878e-01, -5.0495827436175623e-02,
          -9.3382503528519734e-02, 4.7135902359697938e-02,
          1.3419082983087804e-01, 1.0703176126595630e-02,
          7.3998177714688126e-02, -2.2229293875507261e-03,
          -3.2710941760351470e-01, 1.0734203047285658e-01,
          -4.0611084244667434e-01, 1.2487072686391271e-01,
          1.1161519446973514e-02, 4.4673516055416661e-02,
          -5.7174014967766466e-02, 4.0063894525453675e-01,
          -1.1541737201497974e-01, 9.2106898726621658e-02,
          -2.0798577549058175e-01, 8.8702264872298028e-02,
          1.4934118251239564e-02, -3.5666324372481448e-02,
          -5.1477279273436184e-02, -6.7378690002855304e-02,
          -1.2256243262837926e-01, -3.5853497798008095e-02,
          2.7703419857833217e-01, 9.8232360668675765e-03,
          8.8023970347530955e-02, 5.9673091036475841e-03,
          4.3936075647448537e-02, -1.1171175463112298e-01,
          9.0038037965199658e-02, -1.8260931622712614e-01,
          -7.1419936354221961e-02, -3.7420513021274517e-03,
          -1.4857290759309297e-01, 1.7888250035728778e-01,
          -2.0789588911480566e-02, -1.3259775775166667e-02,
          3.9447712613792096e-02, -3.9142024746639942e-02,
          1.9602932784699217e-01, 1.2812499773021455e-01,
          1.1511894943754124e-01, 1.2678462840002352e-01,
          9.1278950402013725e-02, 4.8275086252031779e-02,
          -1.8645640746161325e-02, -1.9863525280752276e-01,
          -2.8027140657266303e-01, 6.0302754492415185e-02,
          -8.1746694795044844e-02, 4.4687149483601564e-02,
          -3.5783796933063008e-02, -1.0167457269626415e-01,
          5.3145276786262616e-02, 7.3370918368325683e-02,
          2.7543842848130168e-01, 1.7064348167731058e-01,
          2.8128219990689766e-02, -1.5442500161439058e-02,
          -2.8033549907639507e-02, 1.0522092831246758e-01,
          -4.0409557922365058e-04, -7.9340029582726054e-02,
          1.0037578295326834e-01, -2.8556092067370636e-01,
          1.2109450820253638e-02, 4.9578914033221774e-02,
          -2.4982346944257671e-02, 3.5553426329369087e-02,
          -1.8179905175487759e-01, -7.3268095164998978e-02,
          -1.8352565547457356e-01, 8.7670040281717335e-02,
          -1.9816452109817792e-01, -9.0813029428912839e-02,
          -4.9409688106833001e-02, -1.1968073733569434e-01,
          5.1301645694887044e-02, 1.1908126377695064e-01,
          -5.2820262726948848e-02, -1.8120059373300712e-01,
          1.1380092469930109e-01, -3.2474873735041160e-01,
          -1.3888331796182823e-02, -2.3052324302063756e-01,
          -3.0196177474608227e-01, -2.3172774602505049e-02,
          -2.4752177229455160e-02, 1.6749117794994026e-01,
          -5.6639426284893893e-02, -3.6410255317205001e-02,
          -1.7488372640239204e-02, -1.3597084168707069e-01,
          1.6773775204837754e-01, 4.3093757926310594e-02,
          -1.9072368671703332e-01, -1.1474064053665338e-01,
          -1.2925924622805377e-02, -2.2089139416891057e-02,
          -2.7195590401092668e-02, 2.7963220474901188e-02,
          9.6564339258529502e-02, -9.8157719101280676e-03,
          5.7462445722684080e-02, -5.6219902530718990e-01,
          -9.8556422230942436e-02, -8.2830197136333397e-02,
          1.5446591559636846e-01, 6.4085261757816550e-02,
          3.2368313584339344e-02, -1.3905661404020508e-01,
          -5.9059327556079864e-02, 2.2141498221459918e-01,
          9.7035101940394453e-01, 3.4025445674412395e-02,
          -5.3307257519791665e-02, 7.9816562434217864e-02,
          1.9996331616085611e-01, 6.2500467980574403e-02,
          1.7710863036669591e-01, 6.4278272545509274e-02,
          1.0608373357104404e-01, -6.8874534746545465e-03,
          2.8300159944975223e-01, -9.7829280325956211e-02,
          -3.5248546354051794e-03, 1.8438683539302816e-01,
          6.9751047939453581e-02, 3.9218377402982105e-02,
          -7.7510315538560706e-02, -5.2003012940096383e-01,
          1.5976791864239043e-01, 6.9731710298895876e-03,
          9.2744314077369619e-02, 1.8870478125040682e-01,
          1.8695429059005814e-02, 3.1901851051363017e-01,
          -9.4417374421079253e-02, -8.6241833662668386e-03,
          -1.6891970082466280e-02, 1.9514768303515596e-02,
          -3.8709786185875289e-01, 2.2355690311157691e-02,
          -2.4822936990553807e-01, -1.0712332060576450e-01,
          3.5021831737271214e-01, -1.0083796220822304e-01,
          1.7304494912866000e-01, -4.1091885083936221e-02,
          2.4269425947898948e-02, 1.1031364362710355e-02,
          1.2726063707489135e-01, 2.6612527441471828e-01,
          -1.5515571614014717e-03, 5.3830457805805094e-02,
          -8.9389473682626577e-02, 8.9808748710951153e-02,
          1.2505252455432023e-01, 1.9718062601187508e-02,
          -2.1417330404742019e-01, -2.3285825607188455e-02,
          6.1841877021079975e-02, -1.5327510847904349e-01,
          1.8265529249388326e-01, 9.6165612495990913e-02,
          2.0474028234839951e-02, -1.7810957360051009e-02,
          6.0187000167532520e-02, 2.1812680145078902e-03,
          2.7752277773567058e-01, 1.2828725140524191e-01,
          -9.6404769884702549e-02, 4.9294681861308261e-02,
          8.6242168317727658e-03, -2.0426267003109774e-01,
          -8.9277942980878922e-03, 6.8331045733097132e-02,
          4.9436379792167084e-01, -2.0215732026694958e-01,
          -3.8193683747976298e-02, -3.2152165789749214e-02,
          -3.3310869216517131e-02, -5.7193388117778299e-02,
          1.0636272370266460e-02, 2.8747829728398532e-02,
          2.2323247293337803e-02, 7.9075217757145155e-02,
          -7.2272405883076055e-02, -7.2245558934482285e-02,
          1.3238516808019266e-01, 1.8143802299220521e-01,
          1.4562676450446269e-01, 4.1989294271862668e-02,
          4.6362598481781104e-03, -7.2727015485391872e-02,
          -3.2744524696774087e-02, -1.1419211094907333e-01,
          -3.0991001980545546e-01, -2.4092267958944624e-01,
          7.6754006582588338e-02, -1.0120851346754105e-02,
          -2.6908962756287034e-03, 3.8389349102397163e-02,
          6.1727336958672489e-03, -9.8382088567057477e-02,
          4.5352448783283666e-01, 2.5780725801869669e-01,
          -6.6060641095059713e-02, -2.9046130566947242e-02,
          1.6385101865301031e-02, 1.2298722882230613e-02,
          -1.0337414527127715e-01, 7.5903839479608631e-02,
          6.9177589169268430e-02, -8.6671946420194351e-02,
          -3.1573676825355765e-02, -2.8219447644860868e-01,
          -2.4016993230301417e-01, 5.3241026269509800e-02,
          -6.5613861159633758e-03, -3.9635137192125525e-02,
          -3.4549939564255519e-02, 2.0187849836418716e-02,
          2.9208963783884961e-01, 1.1355967974463903e-01,
          -1.6512576729193001e-01, 8.2220884134781092e-04,
          3.1688577970866362e-02, -1.9172460268514088e-01,
          1.2380809275863970e-01, 2.2947304702698082e-02,
          5.9395128855474308e-02, 5.6463773131357135e-02,
          1.8119515087738305e-02, -1.5312293360364982e-02,
          1.0042688119150911e-01, 2.0809646499432705e-01,
          -4.4985824060410573e-02, 1.0505451646766856e-01,
          1.4462565115444451e-01, 5.0929747892137379e-03,
          1.2600693840758287e-02, 3.9679811038317758e-01,
          8.2130511997196787e-02, 2.5948325603261688e-02,
          2.6258420527995791e-01, 3.2839139344141172e-01,
          -2.4520214425254344e-01, -1.3132905776360813e-02,
          -1.4276240331732304e-01, -9.3925001355808183e-02,
          1.8830322740808195e-01, -1.2651370049650107e-01,
          -4.8887698914623773e-02, -1.7228604516325086e-01,
          1.2353480331167545e-01, 3.2619691117243284e-02,
          -5.9443843569133945e-02, -5.0192825991888956e-02,
          -3.0901718030062020e-01, 4.6376807026255205e-02,
          -1.7594426575966622e-03, -6.2008240064677089e-02,
          -1.3390579706162148e-01, 9.1500520628515686e-02,
          -3.2618028884992162e-01, 5.2380394713915238e-03,
          -8.0061524499905432e-02, -2.5684401303345439e-01,
          -1.9172045267910796e-03, -4.7941381621258820e-02,
          3.8001757433705513e-01, -1.6973675853628321e-02,
          3.2255867342322213e-02, -2.4862440949172896e-02,
          -7.7368598062144037e-02, 1.7104317897329019e-01,
          8.0591683279991722e-02, -1.8684645904221744e-01,
          -1.0703669356469517e-01, -2.2112062147660524e-02,
          -3.7045306984947388e-02, 2.5701383176961794e-02,
          5.6594418122615446e-02, 1.1708317257999351e-01,
          -1.1210113994723141e-01, -1.0760719229265714e-01,
          1.1513862838208019e-01, 3.5007154341563609e-02,
          -6.9992050311503851e-02, 1.8607987243563773e-01,
          4.5071668183431536e-02, -1.2085845735016182e-01,
          7.4156188387484619e-03, 1.3359981547533289e-01,
          2.2942948794643603e-01, 1.1267967943513699e+00,
          -2.8419199583898124e-03, -2.7231578133445726e-02,
          -3.9777266367596785e-02, 6.6508145999385385e-02,
          3.0680631136108449e-01, 2.3079869033217859e-01,
          3.9985530607741099e-02, -7.2623583424822766e-02,
          2.0089443630608689e-01, -1.9495553592708476e-01,
          -1.4060562619725325e-01, -1.5436694145918778e-01,
          1.6988704690278876e-02, 5.9664011361064917e-02,
          5.8346428601228059e-02, 4.6203700208307117e-03,
          -7.8561940034311661e-02, 4.5457553938052703e-01,
          -5.6971384823870964e-02, 2.0200106728831610e-01,
          -2.4122634996393839e-02, 2.6570254232312029e-02,
          8.0205519762160971e-01, -7.9708959502516372e-02,
          -2.5536288076585945e-01, -6.8855111478696015e-03,
          3.3404255177558614e-02, -6.3050178124453959e-02,
          -2.1841088357915844e-01, -8.8886199734231633e-02,
          6.2550355291225643e-02, 2.3463039973539121e-01,
          -1.5527602840484095e-01, 2.6532702713872813e-01,
          -3.5789974286300236e-02, -6.2068534394932436e-02,
          -1.7578555711542834e-01, 3.1242875796809077e-02,
          2.6537869143231635e-01, -4.6902451449601689e-03,
          4.2507851236688259e-02, -8.2236624311620848e-02,
          -1.9161444727307259e-01, -1.7761290001041233e-01,
          2.2824754187580253e-02, 9.8641031042667540e-03,
          3.0695783415105260e-01, 1.4672917307804723e-01,
          -8.1089394124010658e-02, -1.5917927305668564e-01,
          -3.7720389129998262e-02, 5.0385564681777968e-02,
          -3.5314833362837535e-02, 9.1986793022378624e-02,
          -1.4200898600193723e-01, -2.0099211220452085e-01,
          -2.3674066178543948e-02, 2.1235778203540942e-01,
          -1.0856168781929314e-01, -2.0091090727554266e-02,
          -1.3986800663222021e-01, -3.1836128472804515e-01,
          9.7213261081970412e-02, 4.9919610706308876e-01,
          -2.2672571105939562e-02, -4.5530608935094162e-02,
          8.6126797383525119e-02, -7.9011783011739306e-02,
          -6.3273145782889839e-02, 3.4839539119737174e-02,
          3.0824245510333848e-01, 3.8185920196346146e-02,
          8.5582706141269047e-02, 2.9021122394946425e-01,
          -1.5186740238017310e-01, 1.3537944352081654e-01,
          5.2106429523814890e-02, -5.6434857215162657e-02,
          4.8338090049365068e-01, 2.9249439977837088e-02,
          -1.0810730580397314e-01, -1.8438971554219324e-01,
          -8.8499785085057195e-02, -1.7116242609048413e-02,
          -1.2687115152408698e-01, 7.3068204597439360e-02,
          1.0675698477103361e-02, -4.7987437860237549e-02,
          -1.4084890953893126e-01, -4.5089792158941070e-03,
          -2.1597464811924032e-02, -7.3971510513256511e-02,
          3.2988662534427293e-01, -2.0168772216427791e-01,
          6.0493714568649805e-02, 2.2568780178407643e-02,
          -1.0402673946770843e-02, -1.6963057341893523e-01,
          8.8653577010188878e-03, -5.1235884337799853e-02,
          -8.0454665832849812e-02, 6.8329730548073800e-02,
          -2.1271476759906041e-01, -1.4443321521404717e-01,
          1.4304108908536336e-02, -1.0099800766799362e-03,
          -1.2080714927395561e-01, 2.5643993676461096e-02,
          -5.4100536830706210e-02, -8.9957497475795928e-02,
          1.1437690337265236e-01, 1.2656789899549042e-01,
          1.3918743101091429e-02, -7.3337159444578290e-02,
          -1.7493866900050051e-01, 1.5141077389120927e-01,
          2.8040131135770530e-02, 5.8551706979985213e-02,
          1.0183309622892792e-01, -2.4844581226821039e-02,
          -1.6023039476896397e-02, 1.1492347802409210e-01,
          3.3171029582464172e-02, -5.2180952190477671e-02,
          2.9439544160275538e-01, 1.5194801873989339e-01,
          1.9141760085233109e-02, 1.1050486611375728e-02,
          3.9992568417707164e-01, 1.4112132492383260e-02,
          4.0922177040974408e-02, 4.9011137454916109e-01,
          -2.1783809854840344e-01, 8.7628656847892339e-03,
          5.9815498872476468e-02, -7.6723202087749950e-02,
          -8.2012742500677055e-02, -3.9195717323581020e-01,
          1.7112404248016227e-02, -6.8074950643538717e-02,
          3.1518399723311719e-02, -2.8983324525213031e-02,
          -1.8742063238647402e-01, 1.4545878514954844e-01,
          7.6930152883695480e-02, -4.2658285056319462e-01,
          7.1009292956118950e-02, 7.2727222284131199e-02,
          -4.4244005820005587e-02, -1.4459234561817147e-01,
          -9.6066692176372762e-03, -2.9196102662243169e-03,
          -1.6041270369160379e-02, 5.1003125417330886e-01,
          -5.6879816675044503e-01, -6.2460942889296774e-02,
          2.1505546946083549e-02, 2.0270098412258439e-01,
          -1.4299784411119607e-01, -3.1967410277497188e-01,
          -2.4547617261518578e-02, -1.4533591128925172e-01,
          1.5161483610929996e-01, -5.5565138460755392e-02,
          -1.8992981001148510e-01, -8.2012129050886132e-02,
          -7.8662459101349447e-02, 1.0223148584336422e-01,
          -3.3701970289995123e-02, 1.5319826432908229e-01,
          8.6369892316741192e-02, 2.7172486771826116e-02,
          -1.0182324602533728e-01, 2.3812053812104456e-01,
          -5.1571185423091477e-02, -3.5745683906739240e-02,
          -7.6946112557352536e-02, 5.9101539011162683e-02,
          -1.1287114994975420e-01, 2.2874566577169102e-03,
          1.2733231480291357e-01, 6.4779423460370217e-02,
          1.3011520528976852e+00, 1.9577988673368327e-02,
          -2.0529393897668094e-01, 6.3561828931361239e-02,
          2.7287472111033211e-02, 1.1820069767416459e-01,
          1.7881180289753829e-01, 1.3927484378427471e-01,
          -4.3542092830833601e-02, -1.0834674625260994e-01,
          9.2185205112174443e-02, 5.3957551597178723e-02,
          4.1714693383576536e-02, 5.8654828227848815e-02,
          2.1034859295585145e-01, 8.1360927611032474e-03,
          2.2596371983012523e-02, 7.6565477471850246e-02,
          1.6714598394574107e-01, 1.0876436753544097e-01,
          1.0977014622374180e-01, -2.2684946719598188e-02,
          -3.0019831433209057e-03, -5.3048020903087793e-02,
          3.2428800202223207e-01, -1.4393326073492380e-02,
          1.6547158587884028e-03, 3.4150817132148105e-02,
          -1.1985030932055514e-01, 5.3164605616671481e-02,
          -6.8866990130151226e-02, 6.9828528887324576e-02,
          4.1428833910141333e-01, 4.4822029967485300e-02,
          3.8253255439449248e-02, 3.4619363771041058e-02,
          -8.5964662779897782e-02, -8.4042980212425782e-03,
          6.5022039418574954e-03, -8.4102346028739505e-02,
          4.4590164798744506e-03, -3.4241724376273949e-03,
          5.4376407220487054e-02, -8.6664300368986188e-02,
          1.3997891067759877e-01, 1.6545979285890702e-01,
          -1.5725199927372036e-01, 4.2847139786358207e-01,
          1.4976382285881563e-02, -3.1283063300745168e-01,
          -9.4797751280721446e-02, -1.3145897191313324e-01,
          3.7873702347581027e-03, -2.7091499418241551e-02,
          1.3107242573776734e-01, -3.5257256794151474e-03,
          -1.8001479547816884e-01, 1.1572838367222774e-01,
          1.5264515323190878e-01, 4.8784339718937073e-02,
          1.3493254957968948e-01, -1.1861284011130720e-01,
          -2.8823700307278134e-02, -5.2996021471361489e-02,
          3.6618229438796329e-01, -1.6149397275743271e-01,
          1.0146095651771324e-01, -3.2763190132024611e-01,
          -5.2661853710938143e-02, -7.7310399084814546e-02,
          6.0270446191355700e-02, 1.8370931109400107e-01,
          1.9040941781819834e-01, 7.8887573262522617e-02,
          1.9846561677779057e-01, -2.7684740619306619e-01,
          1.3431200640092505e-01, 1.5735541005518300e-01,
          1.2844656401510363e-01, 6.4757756548357748e-02,
          1.0211857708954752e-02, -1.2665260269391512e-01,
          -2.0961346560415521e-04, 3.5059980993520513e-02,
          -1.1048747118557294e-01, 7.3644700813903174e-02,
          7.0621670606651520e-03, 4.1738732543521402e-02,
          -5.0644514079565897e-02, -4.5717787120641437e-02,
          -9.6525390087907770e-03, -1.5260437428542670e-01,
          -2.4449388244412221e-01, 3.0755135063661759e-01,
          -2.5062185936874276e-01, 6.2864817984318838e-02,
          2.9153576755640277e-02, -2.1384678198934425e-02,
          -1.4106679608189793e-01, 3.1129327765142076e-03,
          3.4510091602173470e-02, -7.7934374852930435e-02,
          -1.1783993314206204e-02, -1.5758599867943202e-01,
          -1.0634442276039209e-04, -1.7473597153922563e-02,
          4.8443223677029398e-02, -7.8741738572712563e-02,
          -1.7272462317076256e-02, 1.2620314567104660e-01,
          -4.6730281271125274e-02, -1.5762211460706041e-02,
          -6.7464700484950402e-02, 3.1413672327590778e-02,
          4.7974032855010472e-02, -2.0181544456998191e-01,
          2.3275038625539899e-02, -6.3713081749238254e-01,
          2.6668565121506477e-01, -1.9110740701641094e-02,
          -7.6425901696314247e-02, -1.5270834067303037e-02,
          4.6057615226162765e-03, 8.0680362552966164e-02,
          2.3189844150673311e-01, 1.5199117246099387e-02,
          1.4854710432457402e-01, -7.9110391397773719e-03,
          -1.9737049156164812e-03, 4.1179168871541533e-01,
          2.2868605646087892e-02, 3.1677090387421135e-02,
          1.0328448513783877e-02, 7.7820134804633970e-02,
          2.9409724753906752e-01, 6.4442333570052468e-02,
          -2.1948754687028169e-01, -2.0059061752142598e-01,
          -2.1005289662057494e-01, 1.1371368919410586e-01,
          2.8235854820314987e-01, -9.9899032670932267e-02,
          -3.8217656621642775e-02, -1.8607317772258358e-01,
          2.8155782999820061e-01, -3.9254493203322839e-02,
          9.3227010856291634e-02, 7.5789043369865361e-02,
          -1.9426360795145781e-01, -1.9018545166035764e-01,
          3.2530125816553075e-02, 1.0684399130036620e-01,
          -2.4647783574836715e-01, -4.0596563375439855e-02,
          3.9127307688425747e-02, -2.4842904266779831e-01,
          -3.9237701417352201e-02, -3.0949138108736549e-02,
          2.0704520038538365e-01, -1.8240334256008899e-02,
          -2.1489557645520266e-01, -1.7145628724750051e-02,
          5.4614970009921486e-02, -1.9544759974281085e-02,
          -8.6798041100145606e-02, 1.3000790399017409e-02,
          2.9233194756331360e-01, 1.9290832581636132e-02,
          9.6770227077026053e-02, -3.2375557509032461e-02,
          5.2145549186315587e-02, 1.2730882652888301e-01,
          -4.8362291019299210e-02, 1.0344230796730386e-02,
          -1.6229522527562937e-01, -1.0832491906800877e-01,
          9.7639495050622485e-02, 2.6957796178217558e-01,
          7.3612860223654805e-02, 9.6988240719270771e-02,
          -1.4744799761311161e-01, 1.3469515061907827e-02,
          -2.7441524041369951e-02, 9.8281837960651242e-01,
          2.1230456388248345e-01, -1.1234689888525608e-01,
          6.0791407393636816e-02, 2.1488256299673761e-01,
          5.9126184887399472e-02, 1.6967369888926531e-01,
          -4.8360378303440917e-03, -2.9298486041079364e-02,
          -2.3179186117338442e-02, 2.7466723556091369e-04,
          -1.0202609828167039e-01, -2.6465854091903701e-01,
          -1.7967638549195303e-01, 1.9014740196574983e-01,
          -2.8463841725870970e-01, 4.8507974578378948e-03,
          7.1033841954795812e-02, 5.3798381540884448e-02,
          1.3009930212546780e-01, 6.0443825888444790e-02,
          -5.3352068272777740e-02, -5.6268139356249497e-02,
          -1.4846802947300208e-01, 9.5539123910659468e-02,
          -7.0713762401573427e-02, 1.1788158627977000e-01,
          2.0688058806002361e-02, -1.2202094973610898e-01,
          6.0500318713643420e-02, 1.1336330846989359e-01,
          6.3538218181205475e-02, 2.9466781031994305e-01,
          5.1159050964340425e-02, 1.6548339586439223e-01,
          -1.1780268738902325e-01, -4.3736424590345824e-02,
          -1.7582807282528229e-02, 2.3319901958560780e-02,
          3.0336880755001133e-01, 1.5540826127198221e-01,
          5.3641685480185324e-02, -4.5698610699887697e-02,
          -8.4714176654738085e-02, 1.3294211135484565e-01,
          -3.8011769429727438e-01, -1.6630203270793015e-01,
          -5.5579775561038069e-01, 5.3692298161349392e-02,
          -2.8721218247691632e-01, 1.5401133303099224e-01,
          8.5061022964181762e-02, -4.5639902231571806e-03,
          -2.0711986925320780e-02, -5.7398964912489171e-02,
          1.8511902140642116e-03, -1.1006674595904101e-01,
          1.0991822382759009e-01, 1.9705591757716343e-01,
          4.3175096379044424e-02, 8.9884376813199537e-02,
          1.3781116939128393e-02, -1.1741716126635014e-02,
          -5.9630072275799050e-02, 1.1544054703590194e-01,
          4.2343287192693452e-02, 1.1146102875837478e-01,
          1.4928323420197329e-02, -4.3745277520537813e-02,
          -1.0524376804404290e-01, -3.5791319791225809e-02,
          -2.7178543542212247e-01, 4.9635421800448352e-02,
          6.7693404024282769e-02, 3.8623530345129153e-01,
          8.0163728281675700e-03, 1.6702229833343077e-01,
          1.4266367399489043e-02, 1.3734080649771555e-01,
          -1.8607470948003324e-01, -3.5120053506139254e-02,
          -1.3258078529104980e-01, 1.8373178316858294e-01,
          2.7109985821303147e-02, 1.1830381506647158e-01,
          2.0431685299372126e-02, -3.7008352231314073e-02,
          2.1356207236822019e-02, -4.4275592093899710e-02,
          -2.0507267315788397e-01, 3.6771507217728924e-03,
          2.7237917759832797e-01, -2.3979973859739399e-02,
          -9.1637307590214490e-02, -1.4657631602092394e-01,
          5.0861503035879614e-02, 1.6393455527508997e-03,
          -1.7274984351827352e-04, -1.1522346210846073e-01,
          7.2387268036241181e-02, 1.8864741330453186e-02,
          -9.4322272823500572e-02, -2.4379114410724479e-02,
          -2.1238817683151745e-01, 5.6604312889256131e-02,
          -3.0952421965187136e-02, -8.2871043855923150e-03,
          -4.4104453505255256e-02, -1.3313427033659802e-02,
          2.4883962828334641e-01, 3.2078764877244353e-01,
          5.5617189142477097e-01, 6.2757141209205267e-02,
          3.9625984773273171e-02, -2.4270272564133766e-02,
          -1.8727162658741422e-01, -2.2013259302305979e-01,
          -1.4068366341665720e-01, 6.0831573655538457e-02,
          9.8595228377316227e-02, 1.0083045499208495e-02,
          4.9624945388795041e-02, 8.5696638017191254e-02,
          7.9492114060059418e-02, 4.4804610156610108e-01,
          3.1184467268824717e-01, 2.7763377385079840e-01,
          3.2738825899429343e-02, -2.4084658659377478e-02,
          4.2314161795259975e-01, 8.5630907480908458e-02,
          9.9588587266278186e-02, -2.1287265429254587e-01,
          1.5724890538281153e-01, 2.5851427885488810e-02,
          1.8646700020235102e-01, 5.8914338641832389e-02,
          3.8918013518074293e-02, -5.3398659556196472e-02,
          -1.5135055992645582e-01, -7.0878768197779093e-02,
          -1.5551921436968272e-01, -1.0708631551494259e-01,
          -1.9000604800669543e-01, -2.2729918211624373e-02,
          -3.3293802195553689e-02, -1.7135343797981595e-01,
          7.8827835214231465e-02, 1.0059455313991567e-01,
          1.7851913688859269e-01, -1.6281787345350987e-01,
          9.8589132565860882e-02, 2.6893449553012994e-01,
          -8.7617730482498265e-03, 5.1516667350508527e-02,
          -3.3196624561712285e-01, -1.1315055689535369e-02,
          -1.8791852094454872e-01, 5.1145829574556476e-02,
          3.9703257014188509e-01, -1.3498149108133756e-01,
          3.5253225867073287e-02, 3.5411165595343949e-02,
          -8.8014639229623284e-02, -1.7307237643142259e-01,
          -1.3279754354183451e-01, 5.0943686111644106e-02,
          -7.6608877663301114e-02, 2.1726687105227749e-01,
          -4.7841707003049801e-02, 2.2961844786805314e-02,
          8.9207563486578795e-02, -2.6158306749056670e-02,
          -8.3159358567899716e-02, -4.0293969448685774e-01,
          -1.8702383987908574e-02, 7.1718521625924209e-02,
          1.7441596886373090e-01, 6.7405628148191607e-02,
          5.5211889529510207e-02, -1.4359718726467779e-01,
          -1.0957805544947753e-01, 9.3766344898319545e-02,
          1.3690504655690032e+00, 2.3594861217335142e-01,
          -3.5554155342467177e-02, 9.8908083865849705e-02,
          2.1097509957319646e-01, 6.6702472355834930e-02,
          3.0625152863632054e-02, 2.2146588395519551e-01,
          -9.9596570056890588e-03, 6.4295001453884656e-02,
          1.0709146798044770e-01, -8.4061335153375882e-02,
          -8.2352757576538746e-02, 3.7322014120536162e-01,
          4.5667473174685690e-02, -1.1087702312970327e-01,
          -1.5810434282737257e-01, 5.4432125851194054e-03,
          2.2045620022050599e-01, 2.8945045239894319e-02,
          1.8860206143059391e-01, -1.9453839735506299e-02,
          6.4511606418205213e-03, -2.5869020896809185e-02,
          6.2331034151678233e-02, -9.9163134721285226e-02,
          1.2664773227415391e-01, 2.7528295543714450e-02,
          -7.5072196992358800e-02, -2.7455939976652102e-02,
          -4.2029608382860247e-02, -1.4482114737874827e-01,
          -8.7429145031252022e-03, 4.9273411785393184e-02,
          -1.8045077635872379e-02, -2.0160901449051569e-01,
          -5.6348424107279110e-02, -3.6538573938403970e-02,
          2.6256056292660528e-02, 4.7705341480431201e-01,
          1.5085175492146360e-01, -7.4842957475696359e-02,
          -9.3470576988114035e-02, -7.8966345607316107e-02,
          -8.2467572906521888e-02, 2.4609740731653472e-02,
          -1.6868217006130418e-01, -2.1644475405753122e-01,
          4.6255604711441356e-02, -1.0298658533417894e-01,
          -1.0851726180845088e-01, -5.4263180683453843e-02,
          -1.1181814337446651e-01, -9.4597196752076174e-02,
          5.3224722101161338e-02, 1.0227468237334001e-02,
          5.7294234515281442e-02, 1.9380796084890806e-01,
          2.9902055563613569e-02, 4.9779030274315544e-02,
          2.7195550551628359e-03, -2.0436145021999380e-01,
          2.0912811467795007e-02, -1.7540334577037539e-01,
          3.5981064160088283e-01, -1.8288351342221273e-02,
          9.1549289176902887e-02, -1.9987835753813818e-01,
          -1.9269918142018231e-02, -6.2584419638096397e-02,
          3.2232393215619680e-02, 4.3503828019099261e-01,
          2.0127239366901251e-01, -1.9454423644985643e-02,
          8.7147961010857408e-02, -1.1075314570368770e-01,
          1.4066811392142559e-01, -2.1623621143814437e-01,
          1.8312252071360635e-01, 1.7161835976222124e-02,
          7.4662929445118487e-02, 1.0123054271395353e-01,
          6.9246350234353965e-02, 4.5949136599176328e-02,
          5.3048624048073749e-02, -2.0539781381603883e-01,
          8.7021609131260169e-02, -8.9310544467267601e-04,
          -5.1548640710480660e-02, -6.3709773007614434e-02,
          1.4054005167291454e-03, 3.0438919780300978e-02,
          -9.4786573892365653e-02, 2.9204299265614186e-01,
          -1.9693807439259892e-01, -2.1460923601442541e-02,
          7.4060173391620751e-03, -1.5424614567434303e-01,
          -9.6149281484394805e-02, -1.1279194611479772e-01,
          -5.7334337619287037e-02, -7.8096501707594995e-02,
          -1.0416876490156679e-02, -5.1390194228425190e-01,
          4.6424322490794621e-03, -4.7970859120973095e-03,
          9.9059579040986271e-04, 8.6955972720738958e-04,
          -3.0629355836003104e-02, 3.0373469216066467e-02,
          1.3242067400112181e-01, 1.0841977181662213e-01,
          1.6857553069201231e-01, 4.9884506576536501e-02,
          5.3965815891260649e-02, 8.4992941918979617e-02,
          -2.5426661450126582e-02, 1.7976356471631379e-02,
          1.0785682580156854e-01, 9.4092736806866764e-02,
          4.6510855647965865e-02, -4.3745404234027667e-02,
          2.6923261525593125e-02, 1.6934086150046258e-02,
          1.2747767329848758e-01, 1.8229646822689116e-01,
          -5.9357526626489035e-02, 5.7827400224323970e-02,
          -5.1210510220199422e-02, -3.2464323256050065e-01,
          6.0723082250968577e-02, 3.6252256912050862e-02,
          9.0750572855957876e-02, -1.9288912620357557e-01,
          -2.1436162532192582e-01, 5.3031172179962810e-02,
          3.8517148436945467e-02, -1.3088241059944888e-01,
          -1.4058470962981353e-03, -1.5193376923252866e-01,
          -5.7988620871482585e-02, -1.8591038832913473e-01,
          -4.0548949278480372e-02, 1.0057731200114233e-02,
          -4.1303470636579291e-02, -4.5186915905957699e-02,
          -3.7508654218498316e-01, 7.3250004320155340e-02,
          -3.0643052589018824e-02, 3.6271623072391254e-03,
          -8.0197968775185383e-02, 9.9310278112764702e-02,
          4.7584119101703692e-01, 7.6068675864013136e-03,
          3.9997352297110808e-02, 3.2748640933662093e-01,
          -1.0625977940841451e-01, -1.2400811703552228e-02,
          2.5786945954975138e-01, -1.4265700098583900e-01,
          -1.6241298416515476e-01, -5.1108397175427126e-03,
          -3.5054198013200311e-01, -2.3768847990626653e-02,
          7.9507825582348909e-02, -2.3696389605264234e-01,
          -1.0626778972225884e-01, -9.9440298869944210e-02,
          4.3907935876475519e-02, -3.3439849346293231e-02,
          2.5518152914448689e-02, 6.8375364214389653e-02,
          -2.3475753087610955e-02, -6.0761698315654304e-02,
          -1.3055850460219820e-01, -1.7587403351618147e-01,
          -9.6142496999410298e-02, 1.5842361686652218e-01,
          5.5845848643262953e-02, -1.2666423657227258e-01,
          2.1779324487014575e-03, 1.3309452752108319e-01,
          3.9067557629540450e-02, 5.0593377070364776e-01,
          2.5438565946202803e-02, -2.0793466176885857e-02,
          -5.6272502593670372e-02, 1.6639115403767823e-01,
          6.5190200912441945e-02, 1.9781452206029840e-01,
          1.8931847586268641e-01, -2.7574892691823970e-02,
          -9.4225852141297077e-03, -8.8168029460247752e-02,
          -1.0024996515715009e-01, 2.7034265003677482e-01,
          -6.4219071966410149e-02, 6.1243564745523366e-02,
          -2.7473513635138008e-01, 1.6370883061685163e-02,
          -4.6521573353817464e-01, 1.3089736910554536e-01,
          8.4169636189368582e-02, 1.8796175077216301e-01,
          -2.3688790302626411e-02, 1.2206871990367156e-02,
          3.2532592555560574e-01, 9.4846853430199232e-02,
          -8.0225368703281508e-02, -9.4662411190633098e-03,
          2.3002403661288837e-02, -7.2693255377699273e-02,
          -2.1681277366000885e-02, 8.4034878447374006e-02,
          7.3036290717223271e-02, 4.0679802053741326e-01,
          -3.6967045814081317e-01, 2.6833438181112373e-01,
          -3.5826218720316751e-02, -4.6170199197171177e-02,
          -1.5197939499180435e-02, 2.0416820619920249e-02,
          2.5290851917683421e-01, -8.0523506967503447e-03,
          3.6656554982803874e-02, -7.7919846570906420e-02,
          5.4252033894869066e-02, -5.1409238842268785e-02,
          2.3167754015072668e-02, -7.4482719423804800e-02,
          1.0941789686430661e-01, 1.8464010269844580e-01,
          -1.1499509963860559e-01, 5.3877245072041453e-02,
          -3.4157469243361571e-01, 2.2610402481045958e-01,
          -2.2191824174830801e-02, 1.2074621023728535e-01,
          4.1383401361358103e-02, 2.0658042485955627e-01,
          1.6765504650828403e-01, -5.4413549292783477e-02,
          5.0613398107049797e-02, -4.2938523763951586e-01,
          7.5732779510282455e-02, -4.2506816934036629e-04,
          7.6034083934114996e-02, -1.6242223363006184e-01,
          -1.8979952360578151e-01, 1.0581867843954400e-01,
          -1.4055965109645802e-01, -8.3914831537975007e-02,
          -1.5611043115638357e-01, 5.3292095272363380e-02,
          1.7856568000404464e-02, 1.3169735019247983e-01,
          6.6313218118495165e-02, -5.5385652177921109e-02,
          -2.9994633694962924e-01, 7.9810969613213031e-02,
          -3.6311286820010218e-02, 1.0110796303799452e-01,
          2.5876394853470169e-01, 1.0713498530183650e-01,
          -1.2564426964463507e-01, 5.9645880679962231e-02,
          4.4473570623333576e-02, -1.3132858436712799e-01,
          -1.2033284226458590e-01, 7.4370408114054862e-02,
          -1.2408292567675326e-02, -4.0728558262606337e-02,
          1.3519033941198152e-02, -2.5323572575459096e-04,
          2.3033128491673471e-01, -3.6361592479673577e-02,
          2.9548970703818805e-01, -2.0596506666785444e-01,
          5.1752135931668122e-02, -1.4753456131935011e-04,
          1.2378732742295909e-01, -1.0615706808421178e-01,
          1.7524878696554983e-04, -1.9294345046201694e-01,
          3.4806363610104515e-02, -2.2266896107405214e-02,
          -1.9253793501443991e-01, 4.2770621326269465e-02,
          -1.0255739013050763e-02, 1.4438736475894712e-01,
          -2.0282525250944313e-02, -1.3771879482055249e-02,
          -3.0018563882905791e-01, -9.5372591716640781e-02,
          2.5827957596454076e-01, 2.3774911792195111e-01,
          1.4899384724403377e-02, 3.3097300391220545e-02,
          -1.2614861767607385e-01, 1.4736211420572778e-01,
          -8.1033112717656439e-02, 1.1281535225575752e-01,
          1.4079116490706839e-02, 6.1435086331341045e-02,
          -3.0537491752585555e-01, -5.7034445519863293e-03,
          6.5640069621190164e-02, -2.9002224457995368e-01,
          1.7508510691196916e-01, 1.5526318910548748e-01,
          4.1624318590048143e-02, -8.3088935448059911e-02,
          1.1565576235254024e-01, 7.8151943799015994e-02,
          -1.7526617466591210e-01, 2.5813845031000054e-01,
          1.7298227467390773e-01, -4.3563197882281947e-02,
          6.4687913131742242e-02, -6.8912079268054802e-02,
          -9.5024331431888029e-02, -1.9483295888589103e-01,
          -8.7345902603500308e-02, -4.8997668860684435e-02,
          9.6906492016998386e-02, -7.8240682165311277e-04,
          -2.1121288734993551e-01, -3.1933286362924737e-02,
          -3.6577534446906597e-02, -3.9922075861583650e-01,
          7.8642540986643639e-02, -3.6038330460223963e-02,
          -9.8005186578892539e-02, -3.2953714849687697e-02,
          9.6541966722315423e-02, -1.7976083896439951e-01,
          -2.6956421638875714e-02, 3.1612369169122578e-02,
          -2.9033495138263826e-01, -1.1107077735975766e-02,
          -2.3828855118027546e-02, 3.9690439337353212e-01,
          2.8579796646069072e-01, -1.6515630395100400e-01,
          -4.8302189352009056e-02, 8.2233288554639974e-02,
          -1.6850253076573313e-02, -8.3777064670758308e-02,
          -1.9064084396449651e-01, 1.2415938594237913e-01,
          -1.0854051892232533e-01, -4.7931937763324266e-02,
          -2.2660780808842262e-01, 2.3317815311350094e-02,
          8.6290550070898975e-02, 2.0962850733916891e-02,
          -9.1343327940297675e-02, -2.4161749746193092e-01,
          2.6738850612736027e-02, -1.4796455211851098e-01,
          3.2999540701298291e-01, 5.3723092120840650e-02,
          -1.2002381467162254e-01, -5.1154121860131033e-02,
          1.0682166161581275e-04, 3.2953561528239145e-01,
          5.2923610273165977e-01, -1.4723243006553538e-01,
          -1.4731579980850804e-01, 3.7761372560635838e-02,
          -6.5253410740158890e-02, 4.6841574493936881e-02,
          -3.4199686058943518e-01, -3.1036334001665208e-02,
          1.8178160921440323e-01, -1.7290253290651800e-01,
          5.1227528295142177e-01, -9.5670773154554814e-02,
          -5.0672103771360610e-01, 5.2209161146647767e-02,
          -1.7900466612264368e-01, -3.1733703514291578e-01,
          3.3402320822228052e-03, 2.4886234487239058e-02,
          1.6765698641390658e-01, -1.2745510067913869e-02,
          1.1251997970049279e-01, -3.0642884625927649e-02,
          -2.6177288122642566e-02, 2.5169583497864484e-01,
          1.0134608538895205e-01, -1.5649421378383842e-02,
          5.5409592436407792e-03, 2.1521516547712609e-02,
          -6.1416940201653974e-02, 2.8794846139826213e-01,
          -8.6635116723485991e-03, 6.1344651901688231e-02,
          -1.3766749267500961e-01, -2.9900242560643159e-01,
          -2.1899658050346191e-02, -4.4520501203867420e-02,
          -5.2944858607127832e-02, -2.3882510596179685e-02,
          1.8033402194401910e-01, -3.2348989201682282e-01,
          -4.7599163843245338e-04, 6.6087598732410324e-02,
          -1.8319469778212881e-02, 4.7228650509920860e-02,
          1.2435470685368750e-01, 6.9910802726023652e-02,
          -1.3583523196511466e-01, -1.1966689355214902e-02,
          2.3582985630397713e-01, 2.4008665056824802e-01,
          7.9952673373723013e-02, -1.5900015397572453e+00,
          -1.8848521594147385e-01, -2.6616954379688869e-02,
          7.3776566882073860e-02, 1.1809146573723096e-02,
          2.5278363028020151e-01, 1.4314043735087600e-01,
          3.4952987830340526e-01, 4.7931594999675156e-02,
          -7.3604927467736905e-02, -1.5020676026816046e-01,
          -1.5390462252340326e-02, 8.7869222250191656e-02,
          3.6278094813720507e-01, -1.5911985343860649e-01,
          -2.6390988698371101e-02, -2.4005871801071052e-01,
          -6.1376421079330171e-03, -1.9144461963977868e-01,
          7.9207174495860427e-02, 9.9623291516988330e-02,
          -1.3234733515206293e-02, 5.6400014666564295e-02,
          -8.1362260142916087e-02, 2.6910714650145406e-01,
          1.8583520288189617e-01, -1.9771087208479401e-01,
          1.2999610834209699e-01, 2.6344089835515824e-02,
          -3.2789721950971427e-02, -4.8826788657053095e-02,
          5.5252257019619880e-04, -9.9847292423806744e-02,
          -1.1096263714153955e-01, -1.0862207903438928e-01,
          7.3061221070461285e-02, -5.8394396726164643e-03,
          -3.9545260786515317e-02, -1.7480788190654906e-01,
          -2.3274273270954878e-03, -1.7078632561161718e-02,
          2.6567539032801751e-01, 3.0146919098706576e-01,
          -1.9975968157970284e-01, -1.3375102198535660e-01,
          1.0690429796922722e-02, 1.0730150272413773e-02,
          -2.4941909027784456e-01, 1.2086249366666888e-02,
          3.4474664110606033e-02, -1.6915918442699318e-01,
          1.2431108899645067e-01, 2.8782771083756176e-01,
          -2.3444135248876180e-01, -1.6827626552735193e-02,
          -1.4101896303055414e-01, 7.7703815493840964e-02,
          -2.9392957904403751e-02, -7.4622576287522030e-03,
          9.2157387063226848e-02, -2.3915801323736305e-01,
          -5.0845931990428739e-01, 5.5364928569463677e-03,
          -3.4040653319367703e-02, -2.1075124729245040e-01,
          1.3199807328391910e-01, -5.5238385338020146e-01,
          5.2888995665808070e-02, -1.0599232171642729e-01,
          4.0056210068107848e-02, 7.8545795950811931e-02,
          1.2281696704735004e-01, 7.8981235456004079e-02,
          8.2215331225665322e-02, 2.4351073262883938e-01,
          1.6268436958246024e-01, 1.5198210868438467e-02,
          -7.3180276411416827e-03, 2.9082012405132118e-01,
          8.4651898155816779e-02, 3.6993402974873503e-02,
          1.6321723496188562e-01, 8.0382480794323113e-02,
          9.7673571549244317e-03, 3.6758006139164204e-02,
          -9.7561455653100843e-02, -8.4760491994555459e-02,
          -9.0776673227095084e-01, -6.1718523227042799e-02,
          -6.6454271715947102e-02, -1.7374318680795806e-01,
          -1.0877859662604182e-02, -4.0846303607374640e-01,
          -5.4577307100755618e-02, -4.1908027507900597e-02,
          -1.0493619929871437e-01, 7.5878491389174768e-02,
          -1.6534920160420779e-02, -1.0754112791722989e-01,
          1.8175617191183446e-02, 8.4778632282955443e-02,
          -2.4544383459702579e-01, 3.3343081905488374e-03,
          5.1513140697828939e-02, -5.6262653006175212e-01,
          -3.4882830964320384e-02, -2.3940931601931521e-02,
          2.1480330711317905e-01, -1.5329588842704614e-01,
          4.5778048436700046e-02, 3.5220813516725807e-01,
          -1.3569694660727830e-01, -3.0018564613078266e-02,
          9.1246849693621679e-02, -2.7543906923077610e-01,
          2.7829138654321856e-01, -9.3287716756330977e-02,
          3.8978859780169373e-01, -2.0802425680468264e-01,
          2.5352773954316421e-01, -7.0894036589795512e-02,
          1.3080503752384979e-02, -1.1828632566975621e-01,
          -3.4142817595705333e-01, 4.9911609740185877e-03,
          -3.1800779263961500e-02, 3.7790598148274290e-02,
          1.5764813692698689e-02, -1.2564676204689621e-02,
          2.1597240814338819e-02, -1.8952427683716019e-01,
          1.8244655749374222e-01, 9.3996769346467024e-01,
          1.9155495154099200e-02, -2.0463954240538339e-02,
          -3.5592885615622155e-02, 3.0645096651876164e-01,
          7.5215005529577092e-02, -3.3600612144395192e-01,
          6.7024005490909311e-02, -2.0663969030963722e-02,
          2.0909382586726225e-01, 3.5689690820396824e-01,
          -8.0824779900867616e-02, 2.0650853893577176e-01,
          -2.3935585896731421e-02, 1.2874859285520376e-01,
          1.7243697664860999e-01, 1.7381347841994570e-02,
          -2.6481241477413275e-01, -1.0691835763689617e-01,
          9.4027626447956269e-03, 1.9118766406004026e-01,
          -4.1201014460249756e-02, -5.6506657162184316e-02,
          1.7520001903893201e-01, 8.7640474834366516e-02,
          -7.6747105903605145e-02, 3.6463715121788577e-03,
          3.6598776201489575e-02, 1.4988354310594898e-02,
          -2.4911713012076322e-01, -7.4381719220397630e-02,
          -3.9904020724873174e-01, -1.1097303355823925e-01,
          -3.8888989975993088e-01, 1.9243028327853857e-03,
          -4.7395824835384785e-02, -2.0375224144860271e-01,
          -3.9774009069611135e-02, 1.2155164856977095e-02,
          -6.5103074716095513e-02, 1.5729136932951043e-01,
          5.4973305221421000e-02, 1.5395970832992906e-01,
          -1.4368516334137917e-02, 1.2453325281616517e-01,
          3.6690617224122229e-02, 2.1028723583929390e-01,
          -1.8301009017236362e-02, 1.3372658789993902e-01,
          -3.2250163937441223e-01, 1.1640481610712107e-01,
          -9.7156476733823383e-01, 1.7538065823909690e-01,
          -1.6706393845108254e-02, 5.8266796785464980e-02,
          -2.7797034041445456e-02, 1.7384116088915344e-01,
          1.5767797088304297e-01, 3.8054053945154953e-01,
          2.8558663455623318e-02, 2.7844612133170305e-04,
          -1.2612479460223411e-01, -1.8590398187284630e-02,
          1.5493830168115727e-01, 1.7194244426677457e-01,
          -7.9105799518837394e-03, -6.1440361093892247e-02,
          -3.1261338868587890e-01, -8.1638849760025584e-02,
          -1.7693231333285622e-01, 2.6390102603617252e-02,
          5.3534296920793478e-02, 3.1645445950876060e-02,
          -1.2593057129774746e-02, 3.5256000130967427e-02,
          -1.4454397117732010e-01, 1.4813332784452279e-01,
          6.2990314413394657e-02, 1.2571928993506598e-01,
          -4.5450205239146299e-03, -6.5713857285820297e-04,
          -1.3522867923002066e-01, 1.1423004224383876e-01,
          -1.3041951501380711e-01, -9.8173164587344514e-02,
          9.7503833133067555e-02, 8.1390867988070006e-02,
          1.2037378192751863e-02, 6.5558034664236625e-02,
          -1.2501858119922343e-01, -9.5630089884716513e-03,
          -2.4780298846356862e-02, 1.4132161457671227e-01,
          2.9825759580988603e-01, -7.9292798642272219e-02,
          4.7419748251761512e-02, 2.0647343054604070e-02,
          -2.3520747438022422e-02, -2.9438264406027903e-01,
          9.8172717823142908e-02, 3.0302948157037640e-02,
          -7.2485045430217943e-02, 8.6546600652219405e-02,
          -4.1018871945897406e-01, 5.2739845905645309e-02,
          -2.0328772582983309e-02, -1.6920233243016197e-02,
          -1.6396110008642724e-02, -2.3653939904204294e-02,
          1.6077710054503060e-02, 1.7842471735565418e-01,
          -2.1124390954798186e-01, 1.2140917223668113e-01,
          7.7920387126341863e-03, 2.3668198930663836e-02,
          -2.3378694992158309e-02, 2.3808435934357348e-02,
          1.1846702925124689e-02, -5.5689604946955629e-02,
          9.8656862413693577e-02, 6.4865717025019962e-02,
          -1.5442962482764173e-02, -6.8511302944093036e-02,
          7.4228326150303420e-02, 2.3973228092172741e-02,
          2.0231339401622134e-01, -1.1763151822257639e-01,
          -1.0408868165946919e-02, -8.9401422120746581e-03,
          3.7958873014902184e-01, -8.1219274615958723e-02,
          3.2190253332845496e-02, -1.9717489667205393e-01,
          2.7197649165835108e-01, 5.5621013299766119e-03,
          2.0057775751046780e-01, 3.1352095400072687e-02,
          -7.1431988556461115e-02, -1.6951742326571251e-01,
          -9.1964054108125998e-02, -5.4401644430732234e-02,
          -1.7513435583183520e-01, -1.6771609020361580e-01,
          -3.6442178072811654e-01, 2.6601409391548182e-03,
          -6.5321221626495687e-02, -1.6494383909526792e-02,
          -2.0602934743956453e-01, 1.0235221279879447e-01,
          -7.1442069193258989e-02, 1.9720304356345492e-02,
          9.3427330504304934e-02, -2.6091384234918674e-01,
          1.4220622931540966e-02, 8.6673041797500822e-02,
          -3.1023778742151703e-01, -1.5078389619725420e-02,
          -2.0271254105334695e-02, 2.1118321087699901e-01,
          7.6173445204629250e-02, -9.9453997517794015e-03,
          2.6855747182294304e-02, -1.9849967593211443e-01,
          -2.9742159430045576e-02, -8.2631191991717201e-02,
          -3.3068995748599561e-01, -1.0625579982961933e-01,
          -2.3601288005170760e-04, 1.2782522692677697e-01,
          -3.9375744749330484e-02, 1.0706495854320675e-01,
          1.0140248212353277e-01, -3.1037103441913072e-01,
          -1.7093723017833067e-02, -3.8821408617096026e-01,
          3.4716837981868205e-02, -5.8565798824968214e-02,
          -6.4276074135566214e-03, 6.7908922274409186e-02,
          4.4322978132761898e-02, 2.3020219909771392e-02,
          7.8521672375095247e-02, 1.7000864737881916e-01,
          3.1909073253092518e-01, 2.2749638038537659e-01,
          -3.8344357378261314e-02, -7.6849822002377638e-02,
          -6.9873626356265123e-02, 5.2575336305365233e-02,
          1.3476372120374336e-01, 3.9020337712776257e-02,
          -2.9435721012984362e-02, 1.0378405996462556e-01,
          -9.6312136534024803e-02, -8.4616694128549039e-02,
          -2.1671709137353331e-02, -1.0569502263560317e-01,
          2.6778508181391464e-01, -3.0254470568550335e-01,
          -1.5678470434242569e-02, -5.4444089943786897e-02,
          -8.3744273597361474e-02, 9.6775637693673922e-02,
          1.9225918022666688e-01, -3.5234429348836409e-02,
          -3.9508364754454857e-02, -3.1232337337840803e-02,
          -7.1635285044348962e-02, -1.0011754549915529e-01,
          -1.6217358003781459e-02, 3.2135128628225589e-02,
          -3.7416711819040188e-02, -3.7348779977837469e-02,
          -7.5928837153775575e-02, 6.6226584361700175e-02,
          7.7896151378252432e-01, -1.5651418526729552e-01,
          -1.2234239534029037e-02, 1.0049009023846962e-01,
          -6.6535119566356327e-02, -3.8820452695972887e-03,
          1.0651486560556648e-02, 4.1156701502186926e-01,
          1.5742050516333497e-01, 4.3051510428091549e-02,
          -6.4577740619062435e-02, -9.0737302264249461e-02,
          1.3848841341972992e-01, -3.4621893298792594e-01,
          2.0120796424095796e-02, -1.8451461499578520e-01,
          -5.3708423311288819e-02, -3.4418992736805554e-01,
          1.0254258504939211e-01, -5.4790389467199697e-02,
          -1.7923953927199723e-01, -1.8651429568613466e-02,
          6.8979480799381765e-02, -1.3263948575624350e-03,
          -6.0424273887338331e-01, 1.4558797185527111e-01,
          3.8492771359081676e-02, 4.1480028627699346e-02,
          -3.2258857918230702e-02, 9.2516427363885961e-02,
          -5.2868067984511201e-03, 1.0407824396442092e-01,
          3.7674204572387887e-01, -2.4101257723407274e-01,
          8.3169768316218334e-02, 9.2500129441734219e-03,
          2.2606219095679014e-01, -7.3413718034258585e-02,
          3.6173730672541772e-03, 1.0605460329503714e-01,
          2.1181098792476230e-01, -2.5500572575780398e-02,
          1.3915645198285601e-01, -6.3421572766724554e-01,
          1.8731888210993164e-01, 2.0189919810254527e-02,
          1.8127126396204958e-02, -3.1664091014262968e-01,
          1.0216922175415052e-02, -2.6904185439804815e-02,
          -7.7104385711438114e-02, 4.0122663866890687e-02,
          2.6568000319005514e-01, -1.1141973012629980e-01,
          1.1263083504799978e-02, -8.3397919620317298e-02,
          -9.3777054027911699e-02, -9.8045073433504368e-02,
          -1.2621346846514397e-02, 4.4909611075721945e-02,
          -3.8734909316606014e-01, 3.0881997255610266e-01,
          -2.4465069656185662e-01, 8.0502369704091928e-02,
          9.5710985554057857e-03, -1.0211830222383988e-02,
          -2.1324679172005401e-01, 8.5999637752644728e-02,
          4.1154345167458729e-02, -2.7178466441898996e-01,
          3.2582342573073469e-01, 1.6797692827150590e-01,
          -1.2853928074582260e-01, -1.6941611003214008e-02,
          -2.0797094464301714e-02, 4.0219536154856739e-02,
          3.0605049455592670e-01, -3.9991089179519865e-03,
          -2.9153912711066019e-02, 7.2891610778217417e-02,
          2.7506084296935501e-01, 7.7000158966551116e-02,
          3.5249552104182985e-02, 4.6267579087210541e-02,
          1.8733103653626494e-02, -3.7470075023655641e-01,
          7.2262567050027079e-02, 5.7082698110275450e-02,
          1.5836882066333911e-02, 4.2706419042105793e-02,
          -1.4839389411274365e-01, 2.0539210144007263e-02,
          4.6669162948854724e-02, 2.3814127750346703e-01,
          4.6975178063845845e-02, 3.4300074541389627e-02,
          1.4688307203977125e-02, 3.9677286125695954e-01,
          3.7381033292764758e-02, 5.9947273574138961e-02,
          2.7213886047047464e-01, 1.8078532699709132e-01,
          2.3962386506868823e-02, -3.3945231761861311e-01,
          5.4640944202301131e-02, 2.5011888706463237e-01,
          7.9227324540476554e-02, 1.1474762399420550e-01,
          -6.5457436823638068e-02, 2.1401716351183903e-01,
          1.1912453863887746e-02, 1.1598491639556254e-02,
          1.1680866643227936e-01, 1.1158822945146879e-01,
          -1.4947543021932549e-01, 6.5185897391433642e-02,
          9.1537648532699842e-02, -2.9588223419426449e-02,
          -1.5990690295174765e-02, 1.0194840924891760e-01,
          -3.7258777507295904e-01, 5.0892805329316665e-03,
          4.3116569088846396e-02, -2.3978275993240028e-01,
          1.3418720643057961e-02, -5.2589721535799341e-02,
          5.7134224453071668e-02, -6.6852378216031794e-02,
          -3.2020451990209625e-01, -8.6316412296571332e-02,
          -1.4684447703908782e-01, -2.3851819722213233e-02,
          -3.2915226049148365e-02, 2.6878093319235977e-02,
          -1.9513797656566811e-01, -1.0852412035999165e-01,
          4.9570920406955640e-02, -2.8472800426429679e-02,
          4.0638456488801732e-02, 9.4742292782047557e-02,
          1.9444466732901254e-02, -1.3534881534983129e-02,
          -1.7160507031533995e-01, 4.2018490072756209e-02,
          1.1773710637119422e-01, 1.8918723568018098e-01,
          5.3909140607317031e-02, 3.6184318723118662e-02,
          -1.5323566685298262e-01, 2.0338680570332271e-01,
          -3.5315798728833621e-02, 9.5839406143368266e-01,
          2.5198918974301932e-02, -4.5894479504580428e-02,
          3.4192756941191088e-02, 7.3614421601322352e-02,
          7.0749460052776089e-02, 1.8097365391056550e-01,
          8.9314421067859417e-02, -1.8068845335529639e-02,
          2.2871451663357281e-01, -2.0102735118542759e-02,
          -9.9517094976425607e-02, 2.6703628250339251e-01,
          -9.5605352819795791e-02, 9.7181824129526737e-02,
          -1.9012547795183354e-02, -2.3064807744510888e-03,
          -4.0689432801207553e-01, 5.7959499172736545e-02,
          -8.9961016952616338e-02, 1.3499251661619652e-01,
          -3.1935881030209251e-02, -3.2692989141977734e-02,
          6.4117889396473116e-02, 6.2377320294049549e-02,
          -9.3947269128057800e-02, -2.0779811610328208e-01,
          1.1925631624073665e-02, -7.8483755279122713e-02,
          1.3112633460057588e-01, 3.1861015836695344e-02,
          7.9901291369701935e-02, 1.3817673580385567e-01,
          -1.3744195260259770e-01, 1.8170163030519385e-01,
          -1.6692402327991304e-01, -5.0098406534545281e-02,
          -3.9621388831982914e-02, 1.4243908243476376e-02,
          -7.2053786839114814e-02, 1.5319727352535165e-01,
          5.4678158642763423e-02, -9.6745934782891715e-02,
          -1.2190285269742644e-01, 1.2466539689069925e-01,
          7.8787143809330318e-03, 3.1425586733177288e-02,
          -1.7352468517308905e-01, 5.4209657157788152e-02,
          3.2016158293165016e-02, 6.6853722699269702e-02,
          -6.9586467175631084e-01, -5.3134711594815039e-02,
          -3.1618790646115030e-02, 7.8458767085262782e-02,
          2.4337085009073185e-02, 2.8310398594947583e-01,
          1.7058774069773752e-01, 3.0571433763893738e-02,
          2.4095261888937938e-01, 3.2985449377262138e-02,
          -2.3769794491559187e-01, 4.8553246868844574e-02,
          -6.6673059368828044e-02, -1.7974785857860856e-01,
          -2.2646594759953155e-02, 6.9280596188503490e-02,
          -1.7555876861920747e-01, -5.0373197880613986e-02,
          -6.2333556555871542e-02, -1.3494070965378982e-01,
          7.4873444639333764e-02, 5.8421354226724231e-03,
          8.3939064432576108e-02, 1.3612976767829163e-01,
          7.2398067897451370e-04, 1.6659291461094439e-01,
          -1.8413992503903029e-01, 1.2231996261133882e-01,
          1.0007105417101601e-01, 7.4124795849322758e-02,
          5.8150883902374328e-02, -1.1460655733704767e-02,
          2.9346122345040190e-02, 2.6018022758160131e-01,
          -1.0512943719634857e-01, 4.6074775095998076e-02,
          -3.4661270544790136e-03, -3.5796160050229148e-02,
          -4.1169040891955826e-02, 6.8631427144295362e-02,
          -1.0790351679871601e-01, 1.1679886039039836e-01,
          2.4813929501842516e-01, -2.3882114580389621e-01,
          2.0096076602888025e-02, 9.1535031074237560e-03,
          -9.7675036446808586e-05, 3.1838270485071907e-01,
          -1.2694457447816682e-02, 3.3874311758409638e-02,
          -2.5205465484285042e-02, -1.8721306384808650e-01,
          1.0239425034148564e-01, 2.1193077485796469e-01,
          -2.2034398474470113e-02, 7.7690673188853560e-02,
          -2.2175424628032275e-01, -1.2901512155325970e-01,
          3.2009123978306887e-02, 1.1390026682751921e-01,
          -3.2957498247395772e-01, 2.4592300880517257e-01,
          4.3933843517773380e-02, -1.5049937117066461e-01,
          -2.1123741242684266e-02, -1.3512548571690062e-03,
          -1.7817005490897048e-01, 9.0839906466235479e-02,
          5.6756984772112953e-02, 3.2007814796838188e-02,
          -4.6560939858749512e-02, 4.1998821452139158e-02,
          2.3108538453351736e-02, -4.7613411992444531e-02,
          -5.4383336564764177e-02, 4.0330605348162102e-01,
          2.4820922528518266e-02, -5.5302349545037271e-04,
          1.8355228046006036e-01, 5.9853163665370308e-02,
          4.9213641111367792e-02, 9.6151420340038082e-02,
          8.2093783519643776e-02, -2.6050495800723768e-03,
          6.4499775131078518e-02, 5.0681080744708867e-02,
          1.3020479251761657e-01, -5.9324913412429486e-02,
          1.8838518646962285e-01, -6.0074693985178867e-02,
          -1.0269772896059146e-01, -2.1891006365315610e-01,
          -4.6538348908198380e-03, -5.9258239749105636e-02,
          9.7511931181923958e-02, -1.9012241454044831e-01,
          7.1709875881881810e-02, -6.9528235914853090e-02,
          -1.1134027346796938e-01, -1.1879128884382277e-02,
          8.2693363092221375e-02, -3.5334753613601838e-01,
          8.0431986372044451e-03, 5.0040566568169069e-02,
          -1.5768646955793958e-01, -2.9019313271250312e-02,
          1.5768560654902794e-01, 3.9754489588027610e-02,
          -2.0759084641913453e-01, 1.6169473795930928e-01,
          -4.4956935375333039e-02, 5.3859798842761229e-02,
          -2.8443693986530509e-02, 9.4131043553355290e-02,
          -1.8378048613243839e-01, -8.6281082206830881e-02,
          -1.1114626225114360e-01, -5.0753940603338585e-02,
          -2.5727250226474685e-01, 1.2016434333919447e-01,
          8.2482477737762128e-02, 5.2805384001138468e-02,
          -1.6812853893521669e-02, -4.1006705981982611e-01,
          1.9402215371185935e-01, -7.9621513351737547e-02,
          7.2854259931703386e-02, 6.9071971963900594e-02,
          -1.1434359751795309e-01, -1.0245095494870569e-01,
          2.2139663025484405e-01, 4.9552698155352392e-03,
          3.0991417420271411e-01, 9.6580636643459797e-02,
          -9.0944182102645821e-02, -7.3314637562014784e-02,
          1.6609677710462886e-01, 4.7292144067969978e-02,
          -4.2879675617115515e-01, 1.7425638444562427e-01,
          -2.3768899425476827e-02, 3.7825166008379880e-03,
          3.3478712574001879e-01, -2.1457825593257357e-01,
          2.0849302872721000e-02, -6.1624676352803803e-02,
          -3.1010081742823187e-01, -2.8495355197949557e-01,
          -6.3687282784264790e-02, 2.2206034066939370e-02,
          4.2474647615541700e-01, 3.6733130888244674e-03,
          1.2258166792329579e-01, -8.3818951768330451e-03,
          1.0604492854640166e-01, 6.8002329258523286e-02,
          8.0704486691342114e-02, -1.0513707753031677e-01,
          1.9963338319771359e-02, 1.2864036671717102e-01,
          -2.4428818542201899e-02, 1.7078448009995248e-01,
          2.6674563602984980e-02, 6.1688767096011989e-02,
          -4.2464308666392205e-02, -1.4458435864833488e-01,
          1.8357239589329200e-01, -2.0924653335658663e-01,
          -4.6994155941875400e-02, 2.5806416087423172e-02,
          1.5562249120352744e-02, -3.4577165971725271e-01,
          -5.8706962235185546e-02, 5.8148778398756505e-02,
          -9.3726433049631519e-02, -6.6271586192790777e-02,
          1.1835525210536492e-01, -1.6287000228966900e-01,
          2.4113852309643183e-01, -3.4770836612592843e-01,
          3.6584837259955710e-01, -7.6550934663084894e-02,
          -1.0162424768251778e-01, -3.0185644732740230e-01,
          -2.0704603764576510e-01, -2.6382746912797767e-02,
          7.7270184378832305e-02, 1.1643130245263660e-02,
          -1.5286434941579943e-01, 1.7191639082423901e-01,
          1.2641099063243944e-01, 6.1769454734463533e-02,
          -9.5995195427969013e-02, 3.1734389098956911e-01,
          -2.1975978653308945e-01, -2.5265553707044471e-02,
          3.4554212855026939e-01, 1.9568294236765024e-02,
          9.1257492460760328e-02, -1.3012398857090074e-01,
          -6.9403643078669419e-02, 2.6310537829232583e-01,
          3.2320002337861184e-02, 1.0752038031933205e-01,
          1.5661979847951837e-02, 7.3631133320704312e-02,
          3.4957263698066110e-01, 1.3403101892260091e-01,
          1.7753873567273393e-01, -1.2228814978772001e-01,
          1.3541105067647416e-01, 1.2972709816178039e-02,
          2.8055314272611369e-02, -1.3103693151529400e-01,
          -3.1763793846460692e-02, 4.1786766967128811e-02,
          -1.4299743213191907e-01, -1.1489861444286192e-01,
          9.6885981511440650e-02, 4.9155840678461876e-03,
          -3.6318838847611196e-02, -2.1101803826015406e-01,
          2.1674936072970604e-02, 1.3207078907390271e-01,
          1.9924270623275517e-01, 2.3756549528339532e-01,
          -1.9915972032969620e-01, 5.0079904387764350e-02,
          -7.0829353055805162e-04, 7.2745898638484872e-03,
          -1.9666157722298583e-01, -1.7834011439999761e-01,
          9.9646555165848871e-03, -8.6432890133355422e-02,
          -2.4792832740479123e-01, -2.6822541046610415e-01,
          -1.2555209320367056e-01, -1.9327836868155993e-02,
          1.8086926164318495e-01, -2.0103284778570368e-01,
          9.2573233105306824e-02, -6.5790465255653671e-02,
          -9.7755710481934224e-02, -1.1256595435618523e-02,
          1.1692065188879572e-01, 8.5408368323215342e-02,
          -5.5662751126151856e-02, 1.5741180983197117e-01,
          1.4445429907694868e-02, -2.1953269956507854e-01,
          2.1196283328208437e-01, 8.6262142382645901e-02,
          1.1280384264916893e-02, -3.1058209195230630e-02,
          -6.6638074690229102e-02, -2.5413031521024306e-02,
          -4.4381370631724526e-01, 2.3979005549796636e-01,
          1.4503683084073574e-01, 2.3292715765117617e-02,
          -3.0346687780980104e-03, 2.5507833612515213e-01,
          4.1263968597375980e-02, -9.3233208620489255e-02,
          6.4124080661103391e-03, 3.5622819841163589e-01,
          -2.2294763102552852e-03, 3.8002611735534952e-01,
          6.6606388976242256e-02, -8.2584834189784212e-02,
          -5.5026604478957485e-02, -2.2807673685731905e-01,
          -6.0496863519879339e-02, -2.4426668400085261e-01,
          -6.0032639498148424e-02, -4.2180793724152699e-01,
          -6.7800242658877866e-02, -3.7999268574250511e-02,
          -3.1652596905553565e-01, 1.2696712869457413e-01,
          9.9296504406552383e-02, -1.2575755136021627e-01,
          -1.5843564341577202e-01, 8.2168127839135227e-02,
          -3.7966138313587805e-01, 9.2410964876026690e-03,
          5.4036454082712883e-02, -4.1185921780922524e-01,
          -3.6936923227575908e-03, -2.8552584077684233e-02,
          1.7545581281829084e-01, 1.6981330761580951e-01,
          -1.6872015936792761e-01, -3.5381796905316718e-02,
          2.4235788949832859e-01, -2.6692455559279283e-02,
          -2.2679097698634954e-01, -1.9206481355420324e-01,
          -1.1746945687513474e-01, 7.5515651913716467e-02,
          1.2163682491090475e-01, -2.6946691598547890e-02,
          2.1803962978776531e-01, -9.1094729999676202e-02,
          2.2726143690428940e-03, -3.8593734001661238e-02,
          -2.9296588398327938e-01, -2.9000991201758811e-02,
          -1.3522360200132591e-01, -5.0992763603585878e-01,
          5.5482598570182284e-02, -1.2488305525116272e-01,
          1.7364641125252472e-02, 1.3996372875236776e-01,
          1.6289490459052053e-01, 9.0035354662559230e-01,
          1.4709434633867807e-01, 1.4858272127052225e-02,
          7.0800725132981052e-02, 2.1084058885865145e-01,
          -3.2082016987837220e-02, 1.6286775462173231e-01,
          2.0478515056290039e-01, 1.2326202148945221e-01,
          -1.0740021036090686e-01, 2.0419094775354807e-01,
          8.2432115162677344e-02, 3.6862788136114444e-01,
          7.0936683684891533e-02, 2.7855036211633283e-01,
          -1.7445454215000041e-02, -5.8618475345368196e-02,
          -1.2507424074894838e-02, -3.1692224194421487e-01,
          1.1516562589522372e-01, 1.4772412751700092e-01,
          -3.6317073973129853e-02, -6.3025641937628551e-02,
          -1.9678131025921402e-02, 1.3344910163541876e-01,
          -1.4730554926822453e-01, 1.2816851685833025e-01,
          1.2691262411984165e-03, -6.7222575483485231e-02,
          2.1093903374515671e-01, -6.8203278165705691e-02,
          6.8648197991176343e-02, 3.3377307929313815e-01,
          -3.8707560802234076e-01, -1.1320094473939317e-01,
          -1.3723574958575988e-01, -3.0496724455267257e-02,
          -1.1541640143732294e-02, 3.8997723549679848e-02,
          -6.5771340532674222e-02, -5.9456091572636224e-03,
          6.0835351978363955e-02, -8.7279659809910759e-02,
          -1.7159473429004354e-02, 1.2010266537887790e-01,
          -2.4405838194321652e-02, 8.5085022934448196e-02,
          3.2514067974386379e-01, 2.4200697244114566e-01,
          2.1293646651364715e-02, 5.4108167346612661e-02,
          -6.1967716599444778e-01, -3.5189129333896185e-01,
          -1.6774184085758446e-02, 6.4338047890777503e-02,
          -3.1517368569455042e-03, -1.5044637564986477e-01,
          6.1301293552827790e-02, 3.7794809317804740e-01,
          6.4827562066955932e-02, -5.4969725121510785e-02,
          -1.7027971830255920e-01, -7.9861152910983228e-03,
          3.2939308848171733e-01, 1.3495740249237614e-01,
          -1.6771702076213112e-02, -9.9964718539404685e-03,
          -1.2180516951704934e-01, -1.1844544746274394e-01,
          -2.0726828088730526e-01, 2.5151087295741652e-02,
          1.0597641103936083e-01, 1.8656807253060997e-01,
          7.2156749226037181e-02, 2.3591884896395413e-01,
          -1.1593592679000498e-02, 1.3763565324960109e-01,
          1.3233227629048133e-01, 1.2876906236636265e-01,
          4.3614313160097051e-01, 2.2177599283524801e-01,
          -7.1619851530035250e-02, 1.5181268235163962e-03,
          3.2496505374425860e-02, 1.1331144859298602e-01,
          -1.1268882929330949e-01, 1.0247627595558356e-01,
          1.0955229333959893e-02, -4.1678577578783058e-02,
          -1.0023428935173913e-01, -2.8373710185283763e-01,
          9.1228168347328872e-02, -3.3837183944213887e-02,
          3.0564026086049073e-01, -1.9242126498409587e-01,
          9.1885898727715826e-02, 5.5039813968189293e-02,
          -2.0943481074114725e-02, 5.9995090694228675e-02,
          -9.2946065533339485e-03, 2.4989319712520875e-02,
          1.6651328392428522e-01, -1.2002201379705608e-02,
          -3.1079305516212213e-01, 5.2956285375412686e-02,
          -1.3415996861652317e-02, -6.8658829150683599e-03,
          2.2782555661556542e-01, -2.2869429495013918e-01,
          -8.5482770053871809e-02, -1.0266419490241264e-01,
          1.8211096694924650e-01, -2.1254686232484415e-01,
